Weight_Index,Value
0,-58.0
1,3.0
2,28.0
3,0.0
4,-89.0
5,-27.0
6,51.0
7,60.0
8,-3.0
9,-6.0
10,35.0
11,-40.0
12,38.0
13,-8.0
14,33.0
15,-68.0
16,-82.0
17,-6.0
18,29.0
19,51.0
20,-115.0
21,30.0
22,51.0
23,29.0
24,6.0
25,37.0
26,42.0
27,-89.0
28,48.0
29,-1.0
30,-66.0
31,19.0
32,25.0
33,-88.0
34,28.0
35,31.0
36,23.0
37,25.0
38,54.0
39,-104.0
40,50.0
41,12.0
42,-67.0
43,-3.0
44,62.0
45,1.0
46,-52.0
47,-5.0
48,19.0
49,10.0
50,28.0
51,-69.0
52,37.0
53,4.0
54,11.0
55,-42.0
56,41.0
57,-18.0
58,17.0
59,-30.0
60,24.0
61,-5.0
62,29.0
63,-25.0
64,-31.0
65,22.0
66,1.0
67,0.0
68,6.0
69,41.0
70,-21.0
71,-25.0
72,24.0
73,17.0
74,-50.0
75,5.0
76,32.0
77,-6.0
78,-24.0
79,-15.0
80,55.0
81,11.0
82,-46.0
83,-14.0
84,17.0
85,-16.0
86,11.0
87,-14.0
88,-5.0
89,28.0
90,10.0
91,-32.0
92,-9.0
93,0.0
94,-11.0
95,21.0
96,2.0
97,18.0
98,-30.0
99,10.0
100,-8.0
101,26.0
102,-41.0
103,9.0
104,15.0
105,15.0
106,-25.0
107,-5.0
108,9.0
109,-3.0
110,-12.0
111,3.0
112,9.0
113,-12.0
114,-17.0
115,19.0
116,29.0
117,-30.0
118,10.0
119,-13.0
120,41.0
121,-3.0
122,-10.0
123,-25.0
124,42.0
125,-17.0
126,-30.0
127,3.0
128,-5.0
129,21.0
130,-38.0
131,15.0
132,26.0
133,1.0
134,-37.0
135,1.0
136,59.0
137,-9.0
138,-42.0
139,-8.0
140,5.0
141,15.0
142,-17.0
143,-11.0
144,36.0
145,21.0
146,-31.0
147,-24.0
148,41.0
149,-15.0
150,-9.0
151,-13.0
152,31.0
153,-31.0
154,-3.0
155,-8.0
156,17.0
157,4.0
158,3.0
159,-29.0
160,11.0
161,2.0
162,-11.0
163,-5.0
164,23.0
165,14.0
166,-61.0
167,6.0
168,0.0
169,24.0
170,-14.0
171,-10.0
172,6.0
173,-3.0
174,-1.0
175,4.0
176,1.0
177,-6.0
178,-3.0
179,9.0
180,-3.0
181,-2.0
182,-10.0
183,4.0
184,-15.0
185,6.0
186,4.0
187,-2.0
188,18.0
189,-18.0
190,-15.0
191,5.0
192,1.0
193,-3.0
194,-10.0
195,8.0
196,-19.0
197,-22.0
198,-21.0
199,55.0
200,-6.0
201,-1.0
202,-25.0
203,36.0
204,-7.0
205,6.0
206,-10.0
207,12.0
208,19.0
209,-23.0
210,-25.0
211,24.0
212,10.0
213,-9.0
214,-3.0
215,-4.0
216,6.0
217,-13.0
218,-3.0
219,14.0
220,21.0
221,-10.0
222,-21.0
223,16.0
224,18.0
225,-38.0
226,3.0
227,18.0
228,18.0
229,-36.0
230,0.0
231,24.0
232,-1.0
233,-22.0
234,-15.0
235,36.0
236,20.0
237,-10.0
238,-20.0
239,6.0
240,48.0
241,-52.0
242,7.0
243,-7.0
244,6.0
245,-15.0
246,-6.0
247,16.0
248,107.0
249,2.0
250,-114.0
251,0.0
252,17.0
253,7.0
254,-23.0
255,0.0
256,-15.0
257,-40.0
258,34.0
259,23.0
260,23.0
261,-8.0
262,-6.0
263,0.0
264,31.0
265,-29.0
266,3.0
267,-12.0
268,7.0
269,3.0
270,-1.0
271,-21.0
272,33.0
273,-15.0
274,-8.0
275,-9.0
276,12.0
277,-3.0
278,-5.0
279,0.0
280,-4.0
281,9.0
282,25.0
283,-29.0
284,4.0
285,21.0
286,-14.0
287,-17.0
288,3.0
289,8.0
290,-19.0
291,-1.0
292,-6.0
293,-34.0
294,11.0
295,26.0
296,6.0
297,-6.0
298,27.0
299,-28.0
300,3.0
301,4.0
302,-26.0
303,6.0
304,8.0
305,-4.0
306,-13.0
307,11.0
308,43.0
309,-22.0
310,-5.0
311,-17.0
312,-12.0
313,-19.0
314,-7.0
315,29.0
316,-36.0
317,0.0
318,9.0
319,21.0
320,-2.0
321,4.0
322,-21.0
323,23.0
324,-16.0
325,8.0
326,-14.0
327,19.0
328,0.0
329,-11.0
330,7.0
331,1.0
332,9.0
333,-9.0
334,16.0
335,-21.0
336,26.0
337,-11.0
338,0.0
339,-11.0
340,11.0
341,11.0
342,7.0
343,-32.0
344,17.0
345,10.0
346,-16.0
347,-7.0
348,27.0
349,1.0
350,-5.0
351,-26.0
352,11.0
353,-32.0
354,27.0
355,-1.0
356,16.0
357,-10.0
358,3.0
359,-11.0
360,24.0
361,11.0
362,-19.0
363,-9.0
364,14.0
365,-1.0
366,11.0
367,-19.0
368,27.0
369,10.0
370,-8.0
371,-15.0
372,2.0
373,3.0
374,1.0
375,-7.0
376,21.0
377,-3.0
378,-31.0
379,25.0
380,10.0
381,-32.0
382,21.0
383,2.0
384,28.0
385,-12.0
386,-15.0
387,12.0
388,23.0
389,10.0
390,-30.0
391,7.0
392,41.0
393,-18.0
394,-19.0
395,4.0
396,24.0
397,-13.0
398,-10.0
399,10.0
400,5.0
401,-1.0
402,-6.0
403,11.0
404,19.0
405,-9.0
406,-2.0
407,12.0
408,15.0
409,26.0
410,-28.0
411,-2.0
412,16.0
413,-8.0
414,19.0
415,-15.0
416,41.0
417,-23.0
418,-27.0
419,25.0
420,21.0
421,2.0
422,-10.0
423,3.0
424,16.0
425,-1.0
426,-18.0
427,14.0
428,27.0
429,-26.0
430,-5.0
431,15.0
432,23.0
433,-25.0
434,-18.0
435,37.0
436,-2.0
437,-17.0
438,7.0
439,18.0
440,20.0
441,-28.0
442,-2.0
443,14.0
444,19.0
445,0.0
446,-7.0
447,10.0
448,31.0
449,-48.0
450,12.0
451,16.0
452,29.0
453,-24.0
454,-4.0
455,17.0
456,29.0
457,-35.0
458,1.0
459,25.0
460,-2.0
461,7.0
462,-7.0
463,17.0
464,39.0
465,-5.0
466,5.0
467,-18.0
468,41.0
469,-42.0
470,-4.0
471,12.0
472,22.0
473,-2.0
474,-24.0
475,20.0
476,13.0
477,15.0
478,-17.0
479,9.0
480,18.0
481,5.0
482,-19.0
483,24.0
484,25.0
485,-28.0
486,3.0
487,6.0
488,1.0
489,26.0
490,-19.0
491,1.0
492,24.0
493,13.0
494,2.0
495,-19.0
496,48.0
497,-20.0
498,-2.0
499,-9.0
500,9.0
501,0.0
502,-13.0
503,14.0
504,2.0
505,-167.0
506,-10.0
507,9.0
508,-14.0
509,-16.0
510,-15.0
511,44.0
512,4.0
513,-18.0
514,6.0
515,15.0
516,33.0
517,-4.0
518,-23.0
519,2.0
520,8.0
521,-20.0
522,-9.0
523,39.0
524,31.0
525,-2.0
526,-12.0
527,-3.0
528,24.0
529,-8.0
530,-26.0
531,15.0
532,30.0
533,-30.0
534,9.0
535,12.0
536,11.0
537,-27.0
538,6.0
539,35.0
540,20.0
541,-16.0
542,-17.0
543,19.0
544,-14.0
545,-16.0
546,-3.0
547,48.0
548,16.0
549,-20.0
550,-9.0
551,31.0
552,-5.0
553,17.0
554,-33.0
555,33.0
556,4.0
557,1.0
558,4.0
559,7.0
560,2.0
561,-16.0
562,-13.0
563,39.0
564,20.0
565,-19.0
566,9.0
567,5.0
568,-1.0
569,17.0
570,7.0
571,-16.0
572,11.0
573,1.0
574,-15.0
575,18.0
576,27.0
577,11.0
578,-11.0
579,-11.0
580,4.0
581,-21.0
582,11.0
583,13.0
584,21.0
585,-15.0
586,-9.0
587,9.0
588,32.0
589,-8.0
590,-24.0
591,15.0
592,18.0
593,-13.0
594,-2.0
595,14.0
596,0.0
597,1.0
598,-24.0
599,30.0
600,35.0
601,-22.0
602,13.0
603,-2.0
604,16.0
605,-13.0
606,-6.0
607,23.0
608,7.0
609,-14.0
610,16.0
611,12.0
612,11.0
613,-14.0
614,-5.0
615,28.0
616,44.0
617,-13.0
618,-12.0
619,-2.0
620,19.0
621,-9.0
622,-10.0
623,25.0
624,13.0
625,0.0
626,5.0
627,3.0
628,0.0
629,-14.0
630,9.0
631,18.0
632,4.0
633,10.0
634,-10.0
635,12.0
636,11.0
637,-10.0
638,-7.0
639,15.0
640,22.0
641,-15.0
642,-3.0
643,1.0
644,33.0
645,-22.0
646,3.0
647,1.0
648,26.0
649,-26.0
650,2.0
651,15.0
652,14.0
653,-38.0
654,33.0
655,3.0
656,8.0
657,-36.0
658,8.0
659,27.0
660,17.0
661,-16.0
662,-4.0
663,22.0
664,4.0
665,-12.0
666,6.0
667,24.0
668,3.0
669,-14.0
670,12.0
671,12.0
672,17.0
673,-42.0
674,4.0
675,34.0
676,20.0
677,-16.0
678,2.0
679,2.0
680,37.0
681,-30.0
682,-5.0
683,23.0
684,29.0
685,-7.0
686,21.0
687,-17.0
688,9.0
689,14.0
690,-4.0
691,-7.0
692,-1.0
693,19.0
694,-1.0
695,-6.0
696,14.0
697,4.0
698,3.0
699,-12.0
700,10.0
701,-13.0
702,30.0
703,-19.0
704,10.0
705,-12.0
706,1.0
707,15.0
708,-9.0
709,13.0
710,15.0
711,-3.0
712,20.0
713,-20.0
714,-18.0
715,22.0
716,-4.0
717,-8.0
718,-14.0
719,39.0
720,-10.0
721,20.0
722,9.0
723,-1.0
724,-1.0
725,5.0
726,5.0
727,5.0
728,12.0
729,-20.0
730,2.0
731,16.0
732,28.0
733,-35.0
734,14.0
735,4.0
736,-27.0
737,10.0
738,5.0
739,15.0
740,19.0
741,-14.0
742,7.0
743,-3.0
744,15.0
745,5.0
746,5.0
747,-6.0
748,3.0
749,10.0
750,-19.0
751,13.0
752,-5.0
753,-21.0
754,24.0
755,4.0
756,29.0
757,-29.0
758,-5.0
759,6.0
760,19.0
761,-17.0
762,1.0
763,3.0
764,39.0
765,-17.0
766,7.0
767,-24.0
768,24.0
769,-22.0
770,8.0
771,-2.0
772,13.0
773,-34.0
774,11.0
775,4.0
776,14.0
777,-3.0
778,5.0
779,-15.0
780,20.0
781,-16.0
782,15.0
783,-15.0
784,21.0
785,-6.0
786,14.0
787,-29.0
788,2.0
789,-6.0
790,16.0
791,-13.0
792,24.0
793,-37.0
794,2.0
795,5.0
796,-7.0
797,-14.0
798,-3.0
799,22.0
800,-16.0
801,-13.0
802,-8.0
803,36.0
804,14.0
805,-14.0
806,-1.0
807,-1.0
808,3.0
809,-12.0
810,24.0
811,-7.0
812,6.0
813,-12.0
814,6.0
815,-2.0
816,18.0
817,-9.0
818,-13.0
819,-3.0
820,22.0
821,-6.0
822,10.0
823,-24.0
824,22.0
825,-8.0
826,-6.0
827,-2.0
828,2.0
829,4.0
830,-4.0
831,-2.0
832,14.0
833,-1.0
834,2.0
835,-15.0
836,-19.0
837,4.0
838,8.0
839,9.0
840,11.0
841,-2.0
842,8.0
843,-24.0
844,25.0
845,8.0
846,-3.0
847,-33.0
848,5.0
849,-12.0
850,-10.0
851,14.0
852,18.0
853,-7.0
854,4.0
855,-22.0
856,13.0
857,8.0
858,-6.0
859,-17.0
860,38.0
861,-15.0
862,-20.0
863,-12.0
864,9.0
865,-23.0
866,7.0
867,8.0
868,13.0
869,-11.0
870,16.0
871,-7.0
872,1.0
873,-24.0
874,-3.0
875,23.0
876,10.0
877,7.0
878,-8.0
879,-19.0
880,4.0
881,-6.0
882,12.0
883,-13.0
884,16.0
885,-19.0
886,6.0
887,-6.0
888,31.0
889,-3.0
890,-14.0
891,-15.0
892,48.0
893,-39.0
894,9.0
895,-20.0
896,22.0
897,-36.0
898,17.0
899,-7.0
900,25.0
901,-20.0
902,-11.0
903,5.0
904,2.0
905,-26.0
906,1.0
907,18.0
908,-28.0
909,-6.0
910,24.0
911,5.0
912,-1.0
913,-18.0
914,5.0
915,17.0
916,8.0
917,-11.0
918,12.0
919,1.0
920,21.0
921,-2.0
922,14.0
923,-33.0
924,24.0
925,-31.0
926,20.0
927,-17.0
928,9.0
929,-32.0
930,30.0
931,-2.0
932,11.0
933,-21.0
934,12.0
935,-8.0
936,8.0
937,-17.0
938,3.0
939,2.0
940,6.0
941,-26.0
942,-5.0
943,24.0
944,20.0
945,-34.0
946,19.0
947,-7.0
948,30.0
949,-21.0
950,-2.0
951,-12.0
952,-11.0
953,-4.0
954,-1.0
955,6.0
956,-3.0
957,-32.0
958,24.0
959,1.0
960,15.0
961,6.0
962,-3.0
963,-18.0
964,-6.0
965,-6.0
966,20.0
967,3.0
968,-10.0
969,5.0
970,-6.0
971,11.0
972,9.0
973,-19.0
974,10.0
975,1.0
976,13.0
977,-7.0
978,-27.0
979,21.0
980,-16.0
981,15.0
982,6.0
983,4.0
984,13.0
985,12.0
986,-12.0
987,-5.0
988,7.0
989,4.0
990,-9.0
991,10.0
992,16.0
993,-23.0
994,6.0
995,-1.0
996,19.0
997,-23.0
998,-2.0
999,9.0
1000,15.0
1001,-1.0
1002,1.0
1003,-13.0
1004,27.0
1005,-13.0
1006,-6.0
1007,0.0
1008,9.0
1009,-6.0
1010,-5.0
1011,8.0
1012,15.0
1013,-2.0
1014,22.0
1015,-34.0
1016,4.0
1017,-8.0
1018,14.0
1019,0.0
1020,7.0
1021,-21.0
1022,-16.0
1023,39.0
1024,22.0
1025,-21.0
1026,6.0
1027,3.0
1028,25.0
1029,-7.0
1030,-6.0
1031,-1.0
1032,11.0
1033,-6.0
1034,-29.0
1035,26.0
1036,15.0
1037,18.0
1038,-29.0
1039,3.0
1040,14.0
1041,-17.0
1042,7.0
1043,3.0
1044,30.0
1045,5.0
1046,-22.0
1047,1.0
1048,19.0
1049,-9.0
1050,-17.0
1051,13.0
1052,28.0
1053,-11.0
1054,-14.0
1055,5.0
1056,9.0
1057,-5.0
1058,-19.0
1059,21.0
1060,18.0
1061,-24.0
1062,-2.0
1063,11.0
1064,11.0
1065,-2.0
1066,-12.0
1067,9.0
1068,5.0
1069,-9.0
1070,-5.0
1071,23.0
1072,-9.0
1073,0.0
1074,-10.0
1075,26.0
1076,-3.0
1077,26.0
1078,-25.0
1079,15.0
1080,15.0
1081,17.0
1082,-17.0
1083,9.0
1084,17.0
1085,-10.0
1086,-11.0
1087,17.0
1088,5.0
1089,5.0
1090,-25.0
1091,14.0
1092,8.0
1093,15.0
1094,-23.0
1095,14.0
1096,-7.0
1097,-14.0
1098,26.0
1099,7.0
1100,-16.0
1101,-17.0
1102,17.0
1103,19.0
1104,-21.0
1105,17.0
1106,-19.0
1107,32.0
1108,-1.0
1109,-8.0
1110,2.0
1111,13.0
1112,28.0
1113,-31.0
1114,-22.0
1115,34.0
1116,25.0
1117,4.0
1118,-26.0
1119,20.0
1120,-3.0
1121,8.0
1122,2.0
1123,14.0
1124,17.0
1125,2.0
1126,-12.0
1127,2.0
1128,12.0
1129,4.0
1130,-17.0
1131,5.0
1132,9.0
1133,10.0
1134,4.0
1135,-11.0
1136,13.0
1137,16.0
1138,-9.0
1139,-6.0
1140,44.0
1141,-3.0
1142,-31.0
1143,4.0
1144,3.0
1145,1.0
1146,8.0
1147,12.0
1148,27.0
1149,2.0
1150,-30.0
1151,14.0
1152,30.0
1153,16.0
1154,-13.0
1155,-13.0
1156,22.0
1157,-21.0
1158,-1.0
1159,15.0
1160,11.0
1161,5.0
1162,13.0
1163,-3.0
1164,45.0
1165,6.0
1166,-11.0
1167,-22.0
1168,32.0
1169,-12.0
1170,-7.0
1171,-2.0
1172,26.0
1173,23.0
1174,-22.0
1175,-6.0
1176,16.0
1177,2.0
1178,-1.0
1179,-2.0
1180,18.0
1181,2.0
1182,21.0
1183,-19.0
1184,17.0
1185,-4.0
1186,6.0
1187,6.0
1188,8.0
1189,25.0
1190,3.0
1191,-16.0
1192,40.0
1193,-13.0
1194,-14.0
1195,-2.0
1196,20.0
1197,26.0
1198,-30.0
1199,-1.0
1200,40.0
1201,-3.0
1202,-13.0
1203,-6.0
1204,3.0
1205,23.0
1206,-13.0
1207,14.0
1208,9.0
1209,26.0
1210,-22.0
1211,10.0
1212,6.0
1213,13.0
1214,-24.0
1215,21.0
1216,25.0
1217,3.0
1218,-5.0
1219,-3.0
1220,-19.0
1221,1.0
1222,-5.0
1223,35.0
1224,-4.0
1225,26.0
1226,-8.0
1227,-2.0
1228,19.0
1229,12.0
1230,-5.0
1231,-6.0
1232,21.0
1233,19.0
1234,-18.0
1235,-8.0
1236,24.0
1237,-12.0
1238,-20.0
1239,31.0
1240,12.0
1241,13.0
1242,-24.0
1243,13.0
1244,23.0
1245,-3.0
1246,-9.0
1247,10.0
1248,37.0
1249,-18.0
1250,12.0
1251,-15.0
1252,14.0
1253,1.0
1254,0.0
1255,0.0
1256,44.0
1257,20.0
1258,-36.0
1259,-4.0
1260,2.0
1261,27.0
1262,-28.0
1263,16.0
1264,5.0
1265,-5.0
1266,-5.0
1267,17.0
1268,13.0
1269,18.0
1270,-16.0
1271,10.0
1272,33.0
1273,5.0
1274,-35.0
1275,5.0
1276,18.0
1277,-3.0
1278,-26.0
1279,17.0
1280,-2.0
1281,10.0
1282,-31.0
1283,33.0
1284,-6.0
1285,13.0
1286,5.0
1287,1.0
1288,15.0
1289,14.0
1290,-3.0
1291,-6.0
1292,19.0
1293,21.0
1294,-11.0
1295,-15.0
1296,10.0
1297,23.0
1298,-11.0
1299,-11.0
1300,18.0
1301,6.0
1302,-17.0
1303,6.0
1304,12.0
1305,22.0
1306,-39.0
1307,24.0
1308,42.0
1309,-22.0
1310,-8.0
1311,1.0
1312,27.0
1313,-11.0
1314,-18.0
1315,20.0
1316,7.0
1317,14.0
1318,-9.0
1319,-4.0
1320,2.0
1321,22.0
1322,-15.0
1323,5.0
1324,22.0
1325,0.0
1326,-30.0
1327,18.0
1328,17.0
1329,18.0
1330,-28.0
1331,-1.0
1332,-5.0
1333,3.0
1334,1.0
1335,9.0
1336,23.0
1337,-13.0
1338,-21.0
1339,23.0
1340,31.0
1341,1.0
1342,-18.0
1343,3.0
1344,8.0
1345,32.0
1346,-10.0
1347,-21.0
1348,26.0
1349,20.0
1350,-30.0
1351,-11.0
1352,16.0
1353,7.0
1354,-31.0
1355,17.0
1356,9.0
1357,17.0
1358,-15.0
1359,-7.0
1360,7.0
1361,15.0
1362,-14.0
1363,-2.0
1364,36.0
1365,-7.0
1366,-19.0
1367,-2.0
1368,2.0
1369,14.0
1370,-20.0
1371,0.0
1372,23.0
1373,-2.0
1374,-7.0
1375,-25.0
1376,5.0
1377,21.0
1378,-29.0
1379,0.0
1380,39.0
1381,4.0
1382,-27.0
1383,-7.0
1384,5.0
1385,-18.0
1386,6.0
1387,10.0
1388,24.0
1389,-15.0
1390,-11.0
1391,1.0
1392,19.0
1393,-1.0
1394,-18.0
1395,-1.0
1396,1.0
1397,-23.0
1398,8.0
1399,10.0
1400,6.0
1401,-4.0
1402,3.0
1403,-7.0
1404,-10.0
1405,10.0
1406,-19.0
1407,20.0
1408,2.0
1409,-5.0
1410,17.0
1411,-4.0
1412,9.0
1413,-1.0
1414,-2.0
1415,-8.0
1416,20.0
1417,1.0
1418,-30.0
1419,6.0
1420,-6.0
1421,0.0
1422,0.0
1423,3.0
1424,-1.0
1425,-15.0
1426,8.0
1427,10.0
1428,12.0
1429,-20.0
1430,-6.0
1431,14.0
1432,-3.0
1433,-8.0
1434,16.0
1435,0.0
1436,3.0
1437,-3.0
1438,0.0
1439,-3.0
1440,7.0
1441,-20.0
1442,11.0
1443,-1.0
1444,10.0
1445,14.0
1446,-11.0
1447,-17.0
1448,17.0
1449,-11.0
1450,2.0
1451,-10.0
1452,22.0
1453,-11.0
1454,14.0
1455,-29.0
1456,7.0
1457,6.0
1458,-12.0
1459,-15.0
1460,12.0
1461,-2.0
1462,-3.0
1463,-19.0
1464,11.0
1465,3.0
1466,-12.0
1467,-12.0
1468,-3.0
1469,-15.0
1470,-5.0
1471,11.0
1472,-6.0
1473,-1.0
1474,9.0
1475,-20.0
1476,9.0
1477,7.0
1478,-35.0
1479,18.0
1480,-3.0
1481,-8.0
1482,7.0
1483,-5.0
1484,4.0
1485,-7.0
1486,8.0
1487,-12.0
1488,10.0
1489,0.0
1490,-31.0
1491,14.0
1492,-22.0
1493,-3.0
1494,1.0
1495,11.0
1496,11.0
1497,16.0
1498,-22.0
1499,-24.0
1500,4.0
1501,-21.0
1502,2.0
1503,-2.0
1504,-29.0
1505,-14.0
1506,11.0
1507,21.0
1508,4.0
1509,141.0
1510,-161.0
1511,5.0
1512,26.0
1513,-24.0
1514,7.0
1515,-9.0
1516,6.0
1517,-16.0
1518,-3.0
1519,5.0
1520,16.0
1521,-11.0
1522,-7.0
1523,-8.0
1524,-10.0
1525,-6.0
1526,-7.0
1527,4.0
1528,10.0
1529,-11.0
1530,4.0
1531,-9.0
1532,25.0
1533,-16.0
1534,17.0
1535,-25.0
1536,25.0
1537,-5.0
1538,-14.0
1539,-21.0
1540,26.0
1541,-23.0
1542,6.0
1543,-16.0
1544,17.0
1545,1.0
1546,-6.0
1547,-14.0
1548,7.0
1549,-3.0
1550,3.0
1551,-26.0
1552,2.0
1553,32.0
1554,-24.0
1555,-11.0
1556,-1.0
1557,11.0
1558,-16.0
1559,0.0
1560,4.0
1561,-5.0
1562,-13.0
1563,2.0
1564,-2.0
1565,-7.0
1566,-9.0
1567,0.0
1568,14.0
1569,-1.0
1570,-11.0
1571,-14.0
1572,4.0
1573,-10.0
1574,13.0
1575,-16.0
1576,-18.0
1577,-3.0
1578,-10.0
1579,15.0
1580,-1.0
1581,10.0
1582,-14.0
1583,-4.0
1584,18.0
1585,-4.0
1586,-1.0
1587,-20.0
1588,-8.0
1589,-21.0
1590,15.0
1591,-9.0
1592,-5.0
1593,-6.0
1594,13.0
1595,-10.0
1596,6.0
1597,-7.0
1598,7.0
1599,-21.0
1600,-9.0
1601,-23.0
1602,27.0
1603,-14.0
1604,5.0
1605,-5.0
1606,6.0
1607,-19.0
1608,0.0
1609,-5.0
1610,0.0
1611,1.0
1612,23.0
1613,-23.0
1614,-6.0
1615,-9.0
1616,-19.0
1617,-9.0
1618,0.0
1619,18.0
1620,18.0
1621,-17.0
1622,11.0
1623,-19.0
1624,0.0
1625,-3.0
1626,-12.0
1627,-1.0
1628,11.0
1629,-19.0
1630,3.0
1631,-10.0
1632,-12.0
1633,6.0
1634,6.0
1635,-19.0
1636,-2.0
1637,-23.0
1638,1.0
1639,10.0
1640,-4.0
1641,-16.0
1642,12.0
1643,0.0
1644,-7.0
1645,0.0
1646,-1.0
1647,-6.0
1648,-13.0
1649,2.0
1650,3.0
1651,-3.0
1652,-6.0
1653,-17.0
1654,-1.0
1655,8.0
1656,31.0
1657,-45.0
1658,-5.0
1659,10.0
1660,19.0
1661,2.0
1662,-7.0
1663,-15.0
1664,4.0
1665,17.0
1666,-15.0
1667,-12.0
1668,28.0
1669,-36.0
1670,8.0
1671,7.0
1672,11.0
1673,-19.0
1674,6.0
1675,-3.0
1676,-3.0
1677,-12.0
1678,-2.0
1679,5.0
1680,1.0
1681,-18.0
1682,13.0
1683,-5.0
1684,-18.0
1685,-3.0
1686,-7.0
1687,13.0
1688,-15.0
1689,4.0
1690,12.0
1691,-9.0
1692,4.0
1693,-2.0
1694,6.0
1695,-10.0
1696,-3.0
1697,-31.0
1698,15.0
1699,12.0
1700,-10.0
1701,-16.0
1702,21.0
1703,-6.0
1704,16.0
1705,-41.0
1706,-8.0
1707,12.0
1708,14.0
1709,-9.0
1710,-2.0
1711,-3.0
1712,5.0
1713,-16.0
1714,4.0
1715,0.0
1716,-6.0
1717,-28.0
1718,17.0
1719,16.0
1720,24.0
1721,-21.0
1722,-14.0
1723,6.0
1724,11.0
1725,-13.0
1726,-8.0
1727,10.0
1728,-3.0
1729,8.0
1730,-15.0
1731,10.0
1732,-4.0
1733,-17.0
1734,15.0
1735,10.0
1736,-10.0
1737,-16.0
1738,-7.0
1739,29.0
1740,-9.0
1741,-26.0
1742,8.0
1743,16.0
1744,19.0
1745,-25.0
1746,-5.0
1747,10.0
1748,-10.0
1749,-31.0
1750,20.0
1751,9.0
1752,-10.0
1753,-2.0
1754,19.0
1755,-10.0
1756,-6.0
1757,-2.0
1758,-10.0
1759,16.0
1760,-15.0
1761,14.0
1762,-5.0
1763,1.0
1764,33.0
1765,-13.0
1766,-22.0
1767,-6.0
1768,13.0
1769,-3.0
1770,-16.0
1771,-1.0
1772,6.0
1773,-28.0
1774,14.0
1775,4.0
1776,-7.0
1777,-24.0
1778,19.0
1779,6.0
1780,12.0
1781,-24.0
1782,12.0
1783,-10.0
1784,4.0
1785,-21.0
1786,23.0
1787,-11.0
1788,-7.0
1789,2.0
1790,14.0
1791,-6.0
1792,-1.0
1793,-8.0
1794,-2.0
1795,5.0
1796,15.0
1797,-24.0
1798,13.0
1799,-14.0
1800,25.0
1801,-27.0
1802,-8.0
1803,4.0
1804,5.0
1805,-2.0
1806,-25.0
1807,9.0
1808,10.0
1809,-6.0
1810,-21.0
1811,8.0
1812,27.0
1813,-9.0
1814,-9.0
1815,-8.0
1816,-12.0
1817,-26.0
1818,9.0
1819,20.0
1820,12.0
1821,-9.0
1822,-24.0
1823,10.0
1824,-1.0
1825,2.0
1826,-9.0
1827,3.0
1828,13.0
1829,-30.0
1830,-13.0
1831,19.0
1832,-9.0
1833,-14.0
1834,-10.0
1835,28.0
1836,15.0
1837,-19.0
1838,-2.0
1839,-4.0
1840,14.0
1841,6.0
1842,-33.0
1843,2.0
1844,-12.0
1845,15.0
1846,-20.0
1847,9.0
1848,-16.0
1849,11.0
1850,-2.0
1851,7.0
1852,17.0
1853,-23.0
1854,-3.0
1855,-3.0
1856,-7.0
1857,8.0
1858,-27.0
1859,21.0
1860,10.0
1861,2.0
1862,-25.0
1863,8.0
1864,9.0
1865,-1.0
1866,-48.0
1867,34.0
1868,-10.0
1869,-24.0
1870,11.0
1871,25.0
1872,-4.0
1873,-5.0
1874,4.0
1875,-6.0
1876,-18.0
1877,-14.0
1878,-12.0
1879,41.0
1880,-4.0
1881,2.0
1882,-13.0
1883,13.0
1884,7.0
1885,-1.0
1886,-21.0
1887,6.0
1888,10.0
1889,-2.0
1890,-11.0
1891,3.0
1892,7.0
1893,-12.0
1894,-14.0
1895,21.0
1896,2.0
1897,6.0
1898,-2.0
1899,-9.0
1900,-3.0
1901,-2.0
1902,1.0
1903,12.0
1904,6.0
1905,7.0
1906,-5.0
1907,1.0
1908,9.0
1909,-2.0
1910,-20.0
1911,11.0
1912,6.0
1913,-9.0
1914,4.0
1915,1.0
1916,18.0
1917,-8.0
1918,-21.0
1919,16.0
1920,-14.0
1921,6.0
1922,-5.0
1923,8.0
1924,-1.0
1925,11.0
1926,-8.0
1927,0.0
1928,-24.0
1929,-12.0
1930,12.0
1931,29.0
1932,-14.0
1933,-6.0
1934,-13.0
1935,27.0
1936,35.0
1937,-9.0
1938,-27.0
1939,3.0
1940,-3.0
1941,21.0
1942,-40.0
1943,15.0
1944,28.0
1945,21.0
1946,-37.0
1947,-10.0
1948,-14.0
1949,28.0
1950,-20.0
1951,9.0
1952,15.0
1953,-12.0
1954,-3.0
1955,-5.0
1956,-20.0
1957,8.0
1958,-16.0
1959,25.0
1960,-11.0
1961,-12.0
1962,10.0
1963,18.0
1964,-6.0
1965,0.0
1966,-10.0
1967,13.0
1968,16.0
1969,-12.0
1970,-25.0
1971,24.0
1972,14.0
1973,21.0
1974,-25.0
1975,-14.0
1976,10.0
1977,-6.0
1978,-11.0
1979,8.0
1980,6.0
1981,8.0
1982,-32.0
1983,16.0
1984,-20.0
1985,5.0
1986,2.0
1987,15.0
1988,-13.0
1989,-4.0
1990,0.0
1991,19.0
1992,16.0
1993,-8.0
1994,5.0
1995,-6.0
1996,11.0
1997,-9.0
1998,3.0
1999,-5.0
2000,27.0
2001,-2.0
2002,-9.0
2003,-13.0
2004,27.0
2005,-27.0
2006,-24.0
2007,25.0
2008,-12.0
2009,-11.0
2010,5.0
2011,7.0
2012,13.0
2013,15.0
2014,-25.0
2015,2.0
2016,8.0
2017,0.0
2018,1.0
2019,-6.0
2020,9.0
2021,-13.0
2022,0.0
2023,17.0
2024,1.0
2025,-5.0
2026,-11.0
2027,18.0
2028,6.0
2029,2.0
2030,-1.0
2031,-2.0
2032,0.0
2033,-20.0
2034,-14.0
2035,34.0
2036,10.0
2037,15.0
2038,-30.0
2039,13.0
2040,0.0
2041,-6.0
2042,-7.0
2043,10.0
2044,17.0
2045,8.0
2046,-6.0
2047,-13.0
2048,4.0
2049,-9.0
2050,-6.0
2051,18.0
2052,17.0
2053,5.0
2054,-7.0
2055,-11.0
2056,-6.0
2057,-8.0
2058,16.0
2059,1.0
2060,12.0
2061,-10.0
2062,-5.0
2063,4.0
2064,-4.0
2065,-14.0
2066,21.0
2067,5.0
2068,-9.0
2069,7.0
2070,2.0
2071,-4.0
2072,-7.0
2073,11.0
2074,-9.0
2075,8.0
2076,11.0
2077,-32.0
2078,-1.0
2079,21.0
2080,12.0
2081,-12.0
2082,-1.0
2083,2.0
2084,25.0
2085,-12.0
2086,-1.0
2087,-9.0
2088,5.0
2089,6.0
2090,-19.0
2091,14.0
2092,6.0
2093,-14.0
2094,-17.0
2095,24.0
2096,5.0
2097,12.0
2098,-38.0
2099,17.0
2100,18.0
2101,2.0
2102,-33.0
2103,21.0
2104,26.0
2105,-13.0
2106,-12.0
2107,8.0
2108,28.0
2109,7.0
2110,-30.0
2111,-2.0
2112,7.0
2113,-2.0
2114,-6.0
2115,8.0
2116,-5.0
2117,0.0
2118,-11.0
2119,12.0
2120,14.0
2121,19.0
2122,-8.0
2123,-12.0
2124,20.0
2125,0.0
2126,-24.0
2127,6.0
2128,24.0
2129,-14.0
2130,-3.0
2131,1.0
2132,29.0
2133,-25.0
2134,18.0
2135,-18.0
2136,4.0
2137,18.0
2138,-15.0
2139,-12.0
2140,21.0
2141,-1.0
2142,-13.0
2143,2.0
2144,2.0
2145,9.0
2146,-2.0
2147,-2.0
2148,13.0
2149,-2.0
2150,1.0
2151,-5.0
2152,6.0
2153,-26.0
2154,16.0
2155,8.0
2156,4.0
2157,-19.0
2158,18.0
2159,-2.0
2160,23.0
2161,6.0
2162,-20.0
2163,-7.0
2164,8.0
2165,-10.0
2166,12.0
2167,3.0
2168,11.0
2169,-15.0
2170,29.0
2171,-19.0
2172,9.0
2173,-14.0
2174,9.0
2175,-6.0
2176,19.0
2177,-4.0
2178,-15.0
2179,0.0
2180,11.0
2181,5.0
2182,-5.0
2183,-7.0
2184,18.0
2185,-13.0
2186,5.0
2187,1.0
2188,33.0
2189,-22.0
2190,-15.0
2191,6.0
2192,32.0
2193,-34.0
2194,4.0
2195,8.0
2196,38.0
2197,-15.0
2198,-7.0
2199,-10.0
2200,-4.0
2201,-19.0
2202,14.0
2203,14.0
2204,-10.0
2205,-1.0
2206,-12.0
2207,24.0
2208,-1.0
2209,-39.0
2210,11.0
2211,37.0
2212,0.0
2213,-15.0
2214,15.0
2215,-1.0
2216,2.0
2217,-3.0
2218,21.0
2219,-14.0
2220,30.0
2221,-12.0
2222,-2.0
2223,-3.0
2224,17.0
2225,-5.0
2226,2.0
2227,-3.0
2228,-1.0
2229,4.0
2230,-1.0
2231,3.0
2232,17.0
2233,-27.0
2234,5.0
2235,11.0
2236,17.0
2237,-31.0
2238,-2.0
2239,21.0
2240,-11.0
2241,-6.0
2242,17.0
2243,-3.0
2244,7.0
2245,-8.0
2246,15.0
2247,-6.0
2248,-17.0
2249,3.0
2250,11.0
2251,7.0
2252,11.0
2253,-13.0
2254,11.0
2255,-12.0
2256,-11.0
2257,12.0
2258,3.0
2259,0.0
2260,9.0
2261,-14.0
2262,6.0
2263,14.0
2264,-5.0
2265,-13.0
2266,2.0
2267,17.0
2268,13.0
2269,6.0
2270,-14.0
2271,1.0
2272,9.0
2273,-4.0
2274,13.0
2275,-7.0
2276,-8.0
2277,10.0
2278,13.0
2279,-14.0
2280,6.0
2281,9.0
2282,-2.0
2283,-10.0
2284,17.0
2285,-6.0
2286,31.0
2287,-24.0
2288,7.0
2289,-12.0
2290,11.0
2291,3.0
2292,18.0
2293,-3.0
2294,-17.0
2295,7.0
2296,8.0
2297,-9.0
2298,5.0
2299,5.0
2300,10.0
2301,-1.0
2302,-18.0
2303,14.0
2304,17.0
2305,-9.0
2306,-3.0
2307,5.0
2308,12.0
2309,-44.0
2310,20.0
2311,24.0
2312,4.0
2313,4.0
2314,22.0
2315,-20.0
2316,29.0
2317,12.0
2318,-17.0
2319,-7.0
2320,-4.0
2321,-8.0
2322,-12.0
2323,32.0
2324,10.0
2325,4.0
2326,-4.0
2327,-7.0
2328,30.0
2329,-21.0
2330,-17.0
2331,16.0
2332,17.0
2333,-5.0
2334,3.0
2335,1.0
2336,14.0
2337,-18.0
2338,10.0
2339,-2.0
2340,18.0
2341,0.0
2342,1.0
2343,-4.0
2344,6.0
2345,16.0
2346,-1.0
2347,1.0
2348,2.0
2349,-4.0
2350,6.0
2351,7.0
2352,18.0
2353,20.0
2354,-16.0
2355,-6.0
2356,24.0
2357,-22.0
2358,1.0
2359,14.0
2360,15.0
2361,-2.0
2362,-5.0
2363,5.0
2364,22.0
2365,5.0
2366,-22.0
2367,9.0
2368,0.0
2369,-29.0
2370,34.0
2371,17.0
2372,10.0
2373,5.0
2374,-4.0
2375,7.0
2376,23.0
2377,4.0
2378,-9.0
2379,1.0
2380,17.0
2381,-13.0
2382,24.0
2383,-7.0
2384,30.0
2385,-14.0
2386,-4.0
2387,3.0
2388,-4.0
2389,-4.0
2390,16.0
2391,8.0
2392,8.0
2393,12.0
2394,-4.0
2395,0.0
2396,7.0
2397,-15.0
2398,11.0
2399,4.0
2400,27.0
2401,-15.0
2402,-5.0
2403,17.0
2404,14.0
2405,-2.0
2406,7.0
2407,-4.0
2408,13.0
2409,10.0
2410,-10.0
2411,6.0
2412,16.0
2413,10.0
2414,15.0
2415,-25.0
2416,25.0
2417,-6.0
2418,9.0
2419,-19.0
2420,9.0
2421,-12.0
2422,25.0
2423,-10.0
2424,-16.0
2425,4.0
2426,19.0
2427,11.0
2428,-11.0
2429,-7.0
2430,28.0
2431,13.0
2432,4.0
2433,8.0
2434,18.0
2435,-10.0
2436,-2.0
2437,41.0
2438,-35.0
2439,16.0
2440,29.0
2441,2.0
2442,-14.0
2443,8.0
2444,23.0
2445,2.0
2446,-16.0
2447,2.0
2448,15.0
2449,16.0
2450,-3.0
2451,-11.0
2452,-8.0
2453,2.0
2454,8.0
2455,11.0
2456,16.0
2457,-2.0
2458,4.0
2459,2.0
2460,10.0
2461,0.0
2462,17.0
2463,-6.0
2464,9.0
2465,-2.0
2466,6.0
2467,19.0
2468,17.0
2469,-4.0
2470,3.0
2471,4.0
2472,13.0
2473,-14.0
2474,11.0
2475,8.0
2476,10.0
2477,-8.0
2478,9.0
2479,10.0
2480,18.0
2481,7.0
2482,2.0
2483,-6.0
2484,20.0
2485,-24.0
2486,19.0
2487,6.0
2488,21.0
2489,-25.0
2490,9.0
2491,21.0
2492,3.0
2493,-30.0
2494,21.0
2495,23.0
2496,7.0
2497,-2.0
2498,-9.0
2499,16.0
2500,-18.0
2501,0.0
2502,1.0
2503,32.0
2504,6.0
2505,7.0
2506,-16.0
2507,19.0
2508,0.0
2509,-9.0
2510,-9.0
2511,41.0
2512,20.0
2513,-10.0
2514,10.0
2515,-1.0
2516,6.0
2517,0.0
2518,5.0
2519,1.0
2520,9.0
2521,7.0
2522,-1.0
2523,-7.0
2524,2.0
2525,-2.0
2526,22.0
2527,-1.0
2528,20.0
2529,1.0
2530,12.0
2531,-11.0
2532,9.0
2533,7.0
2534,4.0
2535,-1.0
2536,17.0
2537,-16.0
2538,17.0
2539,1.0
2540,1.0
2541,-6.0
2542,27.0
2543,-8.0
2544,6.0
2545,-26.0
2546,16.0
2547,18.0
2548,-9.0
2549,4.0
2550,8.0
2551,13.0
2552,6.0
2553,-36.0
2554,6.0
2555,46.0
2556,20.0
2557,-15.0
2558,7.0
2559,13.0
2560,2.0
2561,-13.0
2562,10.0
2563,15.0
2564,-2.0
2565,-7.0
2566,15.0
2567,6.0
2568,1.0
2569,-7.0
2570,-24.0
2571,43.0
2572,21.0
2573,-20.0
2574,-2.0
2575,8.0
2576,2.0
2577,-15.0
2578,-2.0
2579,25.0
2580,3.0
2581,-6.0
2582,12.0
2583,3.0
2584,0.0
2585,-6.0
2586,-13.0
2587,23.0
2588,-3.0
2589,-6.0
2590,6.0
2591,26.0
2592,-8.0
2593,-16.0
2594,9.0
2595,47.0
2596,5.0
2597,-41.0
2598,11.0
2599,40.0
2600,-19.0
2601,-10.0
2602,-10.0
2603,52.0
2604,32.0
2605,-13.0
2606,-13.0
2607,8.0
2608,46.0
2609,-2.0
2610,-9.0
2611,-20.0
2612,19.0
2613,-30.0
2614,-9.0
2615,33.0
2616,11.0
2617,-5.0
2618,-8.0
2619,11.0
2620,-13.0
2621,-22.0
2622,1.0
2623,35.0
2624,3.0
2625,7.0
2626,14.0
2627,-4.0
2628,-10.0
2629,-3.0
2630,-2.0
2631,23.0
2632,3.0
2633,-19.0
2634,14.0
2635,16.0
2636,1.0
2637,-5.0
2638,9.0
2639,8.0
2640,5.0
2641,18.0
2642,-19.0
2643,12.0
2644,12.0
2645,-6.0
2646,-17.0
2647,22.0
2648,6.0
2649,-18.0
2650,6.0
2651,10.0
2652,38.0
2653,-55.0
2654,22.0
2655,1.0
2656,19.0
2657,-14.0
2658,-13.0
2659,13.0
2660,18.0
2661,-9.0
2662,-8.0
2663,0.0
2664,4.0
2665,19.0
2666,-10.0
2667,-2.0
2668,14.0
2669,138.0
2670,-157.0
2671,15.0
2672,23.0
2673,-1.0
2674,14.0
2675,-23.0
2676,18.0
2677,-24.0
2678,-15.0
2679,25.0
2680,6.0
2681,-19.0
2682,11.0
2683,17.0
2684,6.0
2685,-7.0
2686,-11.0
2687,26.0
2688,20.0
2689,-14.0
2690,-15.0
2691,24.0
2692,20.0
2693,-21.0
2694,-10.0
2695,27.0
2696,30.0
2697,-16.0
2698,14.0
2699,-18.0
2700,21.0
2701,-24.0
2702,-10.0
2703,23.0
2704,5.0
2705,-21.0
2706,-205.0
2707,46.0
2708,12.0
2709,8.0
2710,-11.0
2711,4.0
2712,14.0
2713,-15.0
2714,-6.0
2715,18.0
2716,26.0
2717,1.0
2718,-32.0
2719,8.0
2720,9.0
2721,-21.0
2722,-17.0
2723,38.0
2724,16.0
2725,-16.0
2726,-10.0
2727,25.0
2728,23.0
2729,-15.0
2730,-11.0
2731,25.0
2732,-5.0
2733,8.0
2734,-11.0
2735,26.0
2736,22.0
2737,-7.0
2738,-25.0
2739,18.0
2740,33.0
2741,-25.0
2742,-10.0
2743,13.0
2744,-1.0
2745,-17.0
2746,-8.0
2747,35.0
2748,16.0
2749,7.0
2750,-20.0
2751,8.0
2752,9.0
2753,-17.0
2754,-6.0
2755,18.0
2756,13.0
2757,-4.0
2758,0.0
2759,0.0
2760,14.0
2761,-31.0
2762,-13.0
2763,33.0
2764,2.0
2765,-12.0
2766,-22.0
2767,39.0
2768,6.0
2769,-33.0
2770,11.0
2771,21.0
2772,17.0
2773,-12.0
2774,-6.0
2775,6.0
2776,1.0
2777,1.0
2778,-5.0
2779,7.0
2780,-7.0
2781,5.0
2782,-9.0
2783,6.0
2784,5.0
2785,0.0
2786,-8.0
2787,-4.0
2788,3.0
2789,-20.0
2790,-1.0
2791,16.0
2792,14.0
2793,-25.0
2794,3.0
2795,13.0
2796,13.0
2797,-15.0
2798,20.0
2799,-10.0
2800,31.0
2801,-16.0
2802,12.0
2803,-19.0
2804,36.0
2805,-31.0
2806,-5.0
2807,-5.0
2808,15.0
2809,-23.0
2810,-14.0
2811,24.0
2812,20.0
2813,4.0
2814,-12.0
2815,-7.0
2816,0.0
2817,0.0
2818,-7.0
2819,8.0
2820,6.0
2821,2.0
2822,-15.0
2823,13.0
2824,42.0
2825,0.0
2826,-21.0
2827,-24.0
2828,19.0
2829,-15.0
2830,-22.0
2831,18.0
2832,26.0
2833,-17.0
2834,-10.0
2835,8.0
2836,53.0
2837,-42.0
2838,-19.0
2839,4.0
2840,25.0
2841,-19.0
2842,-1.0
2843,-10.0
2844,23.0
2845,-18.0
2846,-22.0
2847,17.0
2848,26.0
2849,-1.0
2850,-13.0
2851,-15.0
2852,31.0
2853,11.0
2854,-6.0
2855,-43.0
2856,36.0
2857,-23.0
2858,-11.0
2859,-2.0
2860,11.0
2861,1.0
2862,-21.0
2863,8.0
2864,15.0
2865,4.0
2866,-19.0
2867,2.0
2868,23.0
2869,-2.0
2870,-33.0
2871,9.0
2872,36.0
2873,-14.0
2874,-30.0
2875,11.0
2876,8.0
2877,-4.0
2878,-25.0
2879,21.0
2880,15.0
2881,16.0
2882,-15.0
2883,-20.0
2884,-1.0
2885,4.0
2886,-2.0
2887,4.0
2888,11.0
2889,0.0
2890,-15.0
2891,3.0
2892,8.0
2893,-2.0
2894,-15.0
2895,20.0
2896,3.0
2897,-14.0
2898,-12.0
2899,20.0
2900,-5.0
2901,-6.0
2902,2.0
2903,5.0
2904,1.0
2905,-9.0
2906,0.0
2907,12.0
2908,-27.0
2909,72.0
2910,-53.0
2911,4.0
2912,-26.0
2913,5.0
2914,-1.0
2915,24.0
2916,-23.0
2917,-3.0
2918,-2.0
2919,33.0
2920,3.0
2921,-6.0
2922,1.0
2923,12.0
2924,0.0
2925,3.0
2926,-2.0
2927,0.0
2928,-9.0
2929,2.0
2930,4.0
2931,-8.0
2932,28.0
2933,-30.0
2934,-10.0
2935,14.0
2936,2.0
2937,2.0
2938,-8.0
2939,14.0
2940,-7.0
2941,-9.0
2942,14.0
2943,5.0
2944,26.0
2945,7.0
2946,-8.0
2947,-23.0
2948,-12.0
2949,-11.0
2950,-5.0
2951,23.0
2952,-3.0
2953,-12.0
2954,-1.0
2955,6.0
2956,-20.0
2957,5.0
2958,-2.0
2959,23.0
2960,3.0
2961,0.0
2962,-20.0
2963,11.0
2964,-2.0
2965,1.0
2966,10.0
2967,-16.0
2968,25.0
2969,-9.0
2970,-13.0
2971,1.0
2972,16.0
2973,-7.0
2974,-13.0
2975,5.0
2976,5.0
2977,-5.0
2978,-2.0
2979,5.0
2980,13.0
2981,-4.0
2982,-5.0
2983,-5.0
2984,-2.0
2985,-5.0
2986,38.0
2987,-35.0
2988,25.0
2989,11.0
2990,-39.0
2991,0.0
2992,7.0
2993,-9.0
2994,-8.0
2995,9.0
2996,25.0
2997,-8.0
2998,1.0
2999,-18.0
3000,31.0
3001,-15.0
3002,-25.0
3003,6.0
3004,17.0
3005,27.0
3006,-35.0
3007,-18.0
3008,26.0
3009,-13.0
3010,1.0
3011,-9.0
3012,13.0
3013,13.0
3014,-10.0
3015,-8.0
3016,14.0
3017,-16.0
3018,-17.0
3019,11.0
3020,5.0
3021,-3.0
3022,-1.0
3023,-2.0
3024,5.0
3025,9.0
3026,-20.0
3027,9.0
3028,26.0
3029,-2.0
3030,-20.0
3031,-9.0
3032,-6.0
3033,-2.0
3034,3.0
3035,4.0
3036,16.0
3037,20.0
3038,-12.0
3039,-24.0
3040,-11.0
3041,13.0
3042,14.0
3043,-9.0
3044,15.0
3045,12.0
3046,-12.0
3047,-16.0
3048,15.0
3049,1.0
3050,7.0
3051,-22.0
3052,-15.0
3053,14.0
3054,-9.0
3055,11.0
3056,16.0
3057,-2.0
3058,0.0
3059,-16.0
3060,10.0
3061,0.0
3062,-11.0
3063,0.0
3064,-1.0
3065,18.0
3066,-12.0
3067,-4.0
3068,5.0
3069,-2.0
3070,-8.0
3071,7.0
3072,11.0
3073,-3.0
3074,-3.0
3075,-2.0
3076,12.0
3077,-4.0
3078,-6.0
3079,-6.0
3080,-7.0
3081,-9.0
3082,7.0
3083,6.0
3084,-8.0
3085,5.0
3086,-5.0
3087,-5.0
3088,-8.0
3089,14.0
3090,-19.0
3091,7.0
3092,-3.0
3093,10.0
3094,-10.0
3095,4.0
3096,-18.0
3097,23.0
3098,-20.0
3099,15.0
3100,-35.0
3101,19.0
3102,5.0
3103,10.0
3104,-10.0
3105,4.0
3106,-2.0
3107,7.0
3108,3.0
3109,6.0
3110,-20.0
3111,5.0
3112,10.0
3113,-7.0
3114,-6.0
3115,3.0
3116,12.0
3117,1.0
3118,-22.0
3119,13.0
3120,30.0
3121,-11.0
3122,-1.0
3123,-11.0
3124,-2.0
3125,-9.0
3126,1.0
3127,13.0
3128,-2.0
3129,-4.0
3130,16.0
3131,-14.0
3132,0.0
3133,-7.0
3134,14.0
3135,-2.0
3136,-6.0
3137,4.0
3138,5.0
3139,0.0
3140,-4.0
3141,13.0
3142,-9.0
3143,2.0
3144,-9.0
3145,-9.0
3146,2.0
3147,12.0
3148,9.0
3149,0.0
3150,-6.0
3151,-2.0
3152,11.0
3153,-15.0
3154,1.0
3155,2.0
3156,-1.0
3157,7.0
3158,18.0
3159,-20.0
3160,-9.0
3161,-5.0
3162,-8.0
3163,18.0
3164,-13.0
3165,22.0
3166,-7.0
3167,-3.0
3168,-1.0
3169,-1.0
3170,-3.0
3171,9.0
3172,11.0
3173,1.0
3174,10.0
3175,-19.0
3176,-9.0
3177,6.0
3178,-3.0
3179,-2.0
3180,-7.0
3181,7.0
3182,-5.0
3183,0.0
3184,-13.0
3185,27.0
3186,-21.0
3187,12.0
3188,-6.0
3189,-3.0
3190,-5.0
3191,19.0
3192,8.0
3193,-13.0
3194,8.0
3195,-2.0
3196,0.0
3197,-155.0
3198,-18.0
3199,-14.0
3200,18.0
3201,-9.0
3202,-15.0
3203,8.0
3204,-1.0
3205,2.0
3206,-2.0
3207,-7.0
3208,-10.0
3209,0.0
3210,-3.0
3211,6.0
3212,-19.0
3213,16.0
3214,14.0
3215,-13.0
3216,-17.0
3217,11.0
3218,-7.0
3219,11.0
3220,-16.0
3221,13.0
3222,-11.0
3223,14.0
3224,-7.0
3225,20.0
3226,-11.0
3227,8.0
3228,-12.0
3229,-1.0
3230,-11.0
3231,22.0
3232,15.0
3233,18.0
3234,-11.0
3235,-15.0
3236,7.0
3237,-2.0
3238,-7.0
3239,-2.0
3240,21.0
3241,-4.0
3242,-10.0
3243,-6.0
3244,-11.0
3245,-3.0
3246,3.0
3247,10.0
3248,-1.0
3249,-7.0
3250,-21.0
3251,24.0
3252,-5.0
3253,-2.0
3254,-13.0
3255,26.0
3256,-14.0
3257,14.0
3258,-1.0
3259,6.0
3260,35.0
3261,-34.0
3262,5.0
3263,-6.0
3264,-29.0
3265,13.0
3266,8.0
3267,7.0
3268,-2.0
3269,7.0
3270,-14.0
3271,8.0
3272,4.0
3273,18.0
3274,-16.0
3275,1.0
3276,7.0
3277,-9.0
3278,8.0
3279,-10.0
3280,-17.0
3281,0.0
3282,26.0
3283,-10.0
3284,-8.0
3285,11.0
3286,9.0
3287,-11.0
3288,3.0
3289,24.0
3290,-14.0
3291,-10.0
3292,-13.0
3293,19.0
3294,-17.0
3295,7.0
3296,-12.0
3297,20.0
3298,0.0
3299,-19.0
3300,-19.0
3301,-1.0
3302,12.0
3303,3.0
3304,-6.0
3305,13.0
3306,2.0
3307,-12.0
3308,-14.0
3309,30.0
3310,-11.0
3311,1.0
3312,-7.0
3313,11.0
3314,13.0
3315,-18.0
3316,-11.0
3317,3.0
3318,15.0
3319,0.0
3320,-19.0
3321,8.0
3322,8.0
3323,10.0
3324,-7.0
3325,5.0
3326,-4.0
3327,5.0
3328,-9.0
3329,-8.0
3330,3.0
3331,15.0
3332,-1.0
3333,5.0
3334,2.0
3335,-7.0
3336,-15.0
3337,16.0
3338,28.0
3339,-21.0
3340,-13.0
3341,11.0
3342,-1.0
3343,3.0
3344,-19.0
3345,16.0
3346,10.0
3347,-6.0
3348,-9.0
3349,9.0
3350,-18.0
3351,26.0
3352,-22.0
3353,29.0
3354,-4.0
3355,4.0
3356,0.0
3357,29.0
3358,-5.0
3359,-4.0
3360,17.0
3361,10.0
3362,7.0
3363,-30.0
3364,-14.0
3365,23.0
3366,-2.0
3367,2.0
3368,-2.0
3369,18.0
3370,0.0
3371,9.0
3372,8.0
3373,11.0
3374,-4.0
3375,-8.0
3376,-2.0
3377,20.0
3378,-1.0
3379,-9.0
3380,10.0
3381,-1.0
3382,-4.0
3383,2.0
3384,-12.0
3385,22.0
3386,17.0
3387,-17.0
3388,2.0
3389,11.0
3390,-19.0
3391,6.0
3392,-22.0
3393,3.0
3394,23.0
3395,-8.0
3396,13.0
3397,23.0
3398,-13.0
3399,-7.0
3400,14.0
3401,-17.0
3402,2.0
3403,9.0
3404,6.0
3405,10.0
3406,6.0
3407,-20.0
3408,-9.0
3409,25.0
3410,-15.0
3411,16.0
3412,-15.0
3413,21.0
3414,4.0
3415,-1.0
3416,-26.0
3417,33.0
3418,3.0
3419,-5.0
3420,9.0
3421,12.0
3422,16.0
3423,-23.0
3424,-7.0
3425,1.0
3426,8.0
3427,7.0
3428,17.0
3429,13.0
3430,-21.0
3431,-9.0
3432,4.0
3433,4.0
3434,-6.0
3435,9.0
3436,27.0
3437,12.0
3438,-3.0
3439,-24.0
3440,0.0
3441,26.0
3442,-3.0
3443,-15.0
3444,8.0
3445,-17.0
3446,11.0
3447,6.0
3448,9.0
3449,6.0
3450,24.0
3451,-35.0
3452,10.0
3453,-14.0
3454,17.0
3455,-9.0
3456,2.0
3457,3.0
3458,8.0
3459,-7.0
3460,18.0
3461,15.0
3462,6.0
3463,-27.0
3464,5.0
3465,11.0
3466,-16.0
3467,15.0
3468,23.0
3469,7.0
3470,-20.0
3471,3.0
3472,-3.0
3473,-4.0
3474,21.0
3475,-7.0
3476,-12.0
3477,2.0
3478,14.0
3479,14.0
3480,0.0
3481,-7.0
3482,3.0
3483,10.0
3484,9.0
3485,29.0
3486,-15.0
3487,-5.0
3488,-13.0
3489,2.0
3490,11.0
3491,12.0
3492,-28.0
3493,30.0
3494,1.0
3495,4.0
3496,7.0
3497,2.0
3498,-9.0
3499,8.0
3500,-11.0
3501,6.0
3502,8.0
3503,3.0
3504,-6.0
3505,26.0
3506,-8.0
3507,5.0
3508,13.0
3509,4.0
3510,2.0
3511,-12.0
3512,-6.0
3513,9.0
3514,-7.0
3515,14.0
3516,8.0
3517,8.0
3518,16.0
3519,-30.0
3520,15.0
3521,25.0
3522,-18.0
3523,-15.0
3524,-11.0
3525,26.0
3526,7.0
3527,-8.0
3528,-5.0
3529,-3.0
3530,15.0
3531,4.0
3532,-5.0
3533,15.0
3534,-9.0
3535,11.0
3536,6.0
3537,22.0
3538,-14.0
3539,3.0
3540,-6.0
3541,35.0
3542,-11.0
3543,-5.0
3544,-25.0
3545,34.0
3546,11.0
3547,-11.0
3548,24.0
3549,7.0
3550,-6.0
3551,-15.0
3552,3.0
3553,8.0
3554,0.0
3555,-8.0
3556,-10.0
3557,34.0
3558,2.0
3559,-13.0
3560,15.0
3561,10.0
3562,-3.0
3563,-7.0
3564,-23.0
3565,17.0
3566,7.0
3567,14.0
3568,-1.0
3569,14.0
3570,-14.0
3571,12.0
3572,-14.0
3573,17.0
3574,-7.0
3575,13.0
3576,-3.0
3577,13.0
3578,3.0
3579,7.0
3580,-1.0
3581,10.0
3582,5.0
3583,2.0
3584,-19.0
3585,19.0
3586,5.0
3587,8.0
3588,-6.0
3589,-9.0
3590,29.0
3591,2.0
3592,21.0
3593,-22.0
3594,16.0
3595,9.0
3596,17.0
3597,20.0
3598,-16.0
3599,-8.0
3600,19.0
3601,15.0
3602,-18.0
3603,-3.0
3604,8.0
3605,14.0
3606,-14.0
3607,17.0
3608,3.0
3609,2.0
3610,7.0
3611,5.0
3612,-9.0
3613,31.0
3614,8.0
3615,-5.0
3616,31.0
3617,0.0
3618,0.0
3619,-12.0
3620,25.0
3621,8.0
3622,7.0
3623,-23.0
3624,3.0
3625,-4.0
3626,4.0
3627,14.0
3628,14.0
3629,-2.0
3630,13.0
3631,-10.0
3632,7.0
3633,19.0
3634,4.0
3635,-11.0
3636,-7.0
3637,21.0
3638,-16.0
3639,8.0
3640,10.0
3641,15.0
3642,0.0
3643,-14.0
3644,-16.0
3645,-1.0
3646,27.0
3647,9.0
3648,2.0
3649,16.0
3650,-8.0
3651,5.0
3652,2.0
3653,6.0
3654,4.0
3655,7.0
3656,7.0
3657,24.0
3658,-1.0
3659,-14.0
3660,23.0
3661,10.0
3662,3.0
3663,-14.0
3664,5.0
3665,7.0
3666,10.0
3667,-8.0
3668,8.0
3669,-7.0
3670,15.0
3671,2.0
3672,-3.0
3673,22.0
3674,-8.0
3675,-4.0
3676,0.0
3677,5.0
3678,10.0
3679,9.0
3680,-4.0
3681,30.0
3682,7.0
3683,-12.0
3684,-10.0
3685,11.0
3686,11.0
3687,7.0
3688,1.0
3689,1.0
3690,4.0
3691,15.0
3692,23.0
3693,16.0
3694,-6.0
3695,-12.0
3696,6.0
3697,21.0
3698,12.0
3699,-17.0
3700,1.0
3701,15.0
3702,-1.0
3703,-3.0
3704,10.0
3705,43.0
3706,-11.0
3707,-30.0
3708,2.0
3709,25.0
3710,-19.0
3711,2.0
3712,10.0
3713,1.0
3714,1.0
3715,-3.0
3716,-4.0
3717,32.0
3718,13.0
3719,-22.0
3720,-1.0
3721,17.0
3722,2.0
3723,-2.0
3724,9.0
3725,13.0
3726,-8.0
3727,-2.0
3728,-22.0
3729,2.0
3730,50.0
3731,-20.0
3732,4.0
3733,8.0
3734,16.0
3735,-13.0
3736,16.0
3737,-4.0
3738,14.0
3739,-13.0
3740,14.0
3741,-1.0
3742,-5.0
3743,4.0
3744,0.0
3745,14.0
3746,-8.0
3747,3.0
3748,-10.0
3749,-5.0
3750,26.0
3751,-5.0
3752,11.0
3753,13.0
3754,10.0
3755,-21.0
3756,5.0
3757,-15.0
3758,11.0
3759,0.0
3760,0.0
3761,-8.0
3762,6.0
3763,13.0
3764,-10.0
3765,2.0
3766,-10.0
3767,28.0
3768,-4.0
3769,3.0
3770,-2.0
3771,17.0
3772,6.0
3773,10.0
3774,-8.0
3775,1.0
3776,-8.0
3777,-3.0
3778,4.0
3779,20.0
3780,6.0
3781,21.0
3782,1.0
3783,-17.0
3784,-12.0
3785,9.0
3786,4.0
3787,8.0
3788,-7.0
3789,0.0
3790,14.0
3791,10.0
3792,10.0
3793,-9.0
3794,16.0
3795,-9.0
3796,5.0
3797,-11.0
3798,0.0
3799,15.0
3800,-8.0
3801,18.0
3802,6.0
3803,-7.0
3804,-1.0
3805,0.0
3806,13.0
3807,-2.0
3808,9.0
3809,-12.0
3810,10.0
3811,-3.0
3812,0.0
3813,5.0
3814,-2.0
3815,8.0
3816,6.0
3817,-7.0
3818,5.0
3819,8.0
3820,1.0
3821,6.0
3822,6.0
3823,-7.0
3824,-19.0
3825,-10.0
3826,21.0
3827,12.0
3828,4.0
3829,7.0
3830,7.0
3831,-8.0
3832,7.0
3833,-10.0
3834,0.0
3835,11.0
3836,-25.0
3837,32.0
3838,12.0
3839,-1.0
3840,-13.0
3841,23.0
3842,-7.0
3843,-5.0
3844,8.0
3845,-4.0
3846,5.0
3847,-7.0
3848,1.0
3849,0.0
3850,-8.0
3851,15.0
3852,12.0
3853,8.0
3854,-17.0
3855,7.0
3856,-19.0
3857,19.0
3858,7.0
3859,-3.0
3860,-8.0
3861,31.0
3862,2.0
3863,-22.0
3864,4.0
3865,3.0
3866,5.0
3867,-6.0
3868,-1.0
3869,24.0
3870,-13.0
3871,-4.0
3872,-10.0
3873,31.0
3874,-7.0
3875,-10.0
3876,-5.0
3877,-8.0
3878,7.0
3879,9.0
3880,-11.0
3881,11.0
3882,8.0
3883,7.0
3884,19.0
3885,-1.0
3886,9.0
3887,-20.0
3888,-17.0
3889,20.0
3890,23.0
3891,-21.0
3892,0.0
3893,7.0
3894,13.0
3895,-17.0
3896,-21.0
3897,33.0
3898,8.0
3899,-8.0
3900,-8.0
3901,21.0
3902,12.0
3903,-17.0
3904,-1.0
3905,6.0
3906,2.0
3907,1.0
3908,-15.0
3909,23.0
3910,15.0
3911,-11.0
3912,2.0
3913,21.0
3914,-7.0
3915,-12.0
3916,-4.0
3917,4.0
3918,0.0
3919,8.0
3920,-9.0
3921,24.0
3922,14.0
3923,-29.0
3924,-13.0
3925,8.0
3926,9.0
3927,-4.0
3928,-13.0
3929,8.0
3930,-8.0
3931,23.0
3932,-6.0
3933,37.0
3934,-2.0
3935,-23.0
3936,-1.0
3937,29.0
3938,-8.0
3939,-5.0
3940,-13.0
3941,23.0
3942,5.0
3943,-11.0
3944,15.0
3945,16.0
3946,4.0
3947,-19.0
3948,-16.0
3949,15.0
3950,13.0
3951,-3.0
3952,-13.0
3953,19.0
3954,10.0
3955,-8.0
3956,8.0
3957,15.0
3958,-5.0
3959,-10.0
3960,0.0
3961,6.0
3962,7.0
3963,-9.0
3964,-11.0
3965,23.0
3966,-15.0
3967,14.0
3968,-4.0
3969,22.0
3970,-11.0
3971,-2.0
3972,16.0
3973,23.0
3974,-1.0
3975,-36.0
3976,-7.0
3977,-7.0
3978,27.0
3979,-6.0
3980,-22.0
3981,-7.0
3982,23.0
3983,6.0
3984,3.0
3985,-10.0
3986,-1.0
3987,4.0
3988,-9.0
3989,1.0
3990,25.0
3991,-17.0
3992,-10.0
3993,0.0
3994,7.0
3995,4.0
3996,6.0
3997,7.0
3998,25.0
3999,-33.0
4000,-10.0
4001,-3.0
4002,-2.0
4003,11.0
4004,-6.0
4005,1.0
4006,14.0
4007,-16.0
4008,4.0
4009,8.0
4010,-1.0
4011,-12.0
4012,22.0
4013,1.0
4014,13.0
4015,-39.0
4016,-19.0
4017,20.0
4018,23.0
4019,-32.0
4020,-9.0
4021,-12.0
4022,20.0
4023,-4.0
4024,-6.0
4025,-6.0
4026,17.0
4027,-15.0
4028,-5.0
4029,-8.0
4030,31.0
4031,-24.0
4032,24.0
4033,-12.0
4034,11.0
4035,-31.0
4036,-28.0
4037,5.0
4038,23.0
4039,-5.0
4040,-33.0
4041,15.0
4042,32.0
4043,-10.0
4044,-8.0
4045,5.0
4046,3.0
4047,-2.0
4048,-4.0
4049,14.0
4050,-6.0
4051,-8.0
4052,-17.0
4053,13.0
4054,8.0
4055,-5.0
4056,-26.0
4057,22.0
4058,32.0
4059,-31.0
4060,-4.0
4061,5.0
4062,18.0
4063,-17.0
4064,-3.0
4065,27.0
4066,14.0
4067,-29.0
4068,-19.0
4069,6.0
4070,17.0
4071,-10.0
4072,-17.0
4073,17.0
4074,-18.0
4075,5.0
4076,-3.0
4077,11.0
4078,5.0
4079,-12.0
4080,-2.0
4081,-3.0
4082,24.0
4083,-26.0
4084,-16.0
4085,27.0
4086,3.0
4087,-26.0
4088,-1.0
4089,19.0
4090,9.0
4091,-18.0
4092,-11.0
4093,-6.0
4094,16.0
4095,-6.0
4096,-9.0
4097,11.0
4098,13.0
4099,-21.0
4100,-24.0
4101,-11.0
4102,31.0
4103,1.0
4104,-1.0
4105,8.0
4106,4.0
4107,-12.0
4108,-8.0
4109,37.0
4110,6.0
4111,-38.0
4112,-24.0
4113,7.0
4114,25.0
4115,-11.0
4116,5.0
4117,12.0
4118,4.0
4119,-28.0
4120,-7.0
4121,6.0
4122,-2.0
4123,-10.0
4124,4.0
4125,-14.0
4126,7.0
4127,-7.0
4128,-21.0
4129,1.0
4130,12.0
4131,1.0
4132,-19.0
4133,1.0
4134,16.0
4135,-1.0
4136,-26.0
4137,19.0
4138,30.0
4139,-25.0
4140,-22.0
4141,2.0
4142,14.0
4143,-3.0
4144,-19.0
4145,12.0
4146,15.0
4147,-13.0
4148,5.0
4149,-24.0
4150,12.0
4151,-3.0
4152,-33.0
4153,-2.0
4154,26.0
4155,3.0
4156,-20.0
4157,5.0
4158,12.0
4159,1.0
4160,-2.0
4161,9.0
4162,5.0
4163,-16.0
4164,-5.0
4165,-25.0
4166,38.0
4167,-20.0
4168,0.0
4169,12.0
4170,-12.0
4171,-11.0
4172,12.0
4173,5.0
4174,11.0
4175,-26.0
4176,-12.0
4177,-10.0
4178,16.0
4179,-5.0
4180,2.0
4181,-11.0
4182,1.0
4183,2.0
4184,-5.0
4185,-12.0
4186,-10.0
4187,17.0
4188,-14.0
4189,-3.0
4190,24.0
4191,-11.0
4192,-20.0
4193,0.0
4194,15.0
4195,-4.0
4196,-22.0
4197,6.0
4198,2.0
4199,4.0
4200,-21.0
4201,29.0
4202,-9.0
4203,-11.0
4204,-4.0
4205,-13.0
4206,-14.0
4207,18.0
4208,-5.0
4209,8.0
4210,-9.0
4211,8.0
4212,1.0
4213,-16.0
4214,26.0
4215,-16.0
4216,-18.0
4217,9.0
4218,36.0
4219,-26.0
4220,-24.0
4221,21.0
4222,11.0
4223,-14.0
4224,-25.0
4225,16.0
4226,-13.0
4227,16.0
4228,-23.0
4229,-7.0
4230,15.0
4231,5.0
4232,-1.0
4233,-3.0
4234,19.0
4235,-23.0
4236,-13.0
4237,-16.0
4238,41.0
4239,-19.0
4240,-7.0
4241,3.0
4242,22.0
4243,-23.0
4244,-15.0
4245,-16.0
4246,17.0
4247,2.0
4248,0.0
4249,-14.0
4250,11.0
4251,-5.0
4252,-20.0
4253,-10.0
4254,35.0
4255,-17.0
4256,-7.0
4257,-1.0
4258,6.0
4259,-6.0
4260,-16.0
4261,10.0
4262,12.0
4263,-5.0
4264,-7.0
4265,12.0
4266,-2.0
4267,-4.0
4268,-5.0
4269,-4.0
4270,31.0
4271,-32.0
4272,-24.0
4273,-9.0
4274,30.0
4275,-6.0
4276,-21.0
4277,20.0
4278,18.0
4279,-25.0
4280,-33.0
4281,-158.0
4282,183.0
4283,1.0
4284,0.0
4285,-3.0
4286,1.0
4287,-14.0
4288,-24.0
4289,5.0
4290,11.0
4291,6.0
4292,-43.0
4293,6.0
4294,37.0
4295,-5.0
4296,-16.0
4297,-1.0
4298,19.0
4299,-6.0
4300,-14.0
4301,3.0
4302,21.0
4303,-13.0
4304,-25.0
4305,-1.0
4306,33.0
4307,-16.0
4308,-17.0
4309,4.0
4310,21.0
4311,-13.0
4312,-30.0
4313,13.0
4314,20.0
4315,-15.0
4316,-25.0
4317,-2.0
4318,38.0
4319,-19.0
4320,-15.0
4321,-11.0
4322,18.0
4323,-7.0
4324,-15.0
4325,8.0
4326,12.0
4327,-14.0
4328,-10.0
4329,-4.0
4330,7.0
4331,-6.0
4332,-9.0
4333,13.0
4334,-8.0
4335,-7.0
4336,-38.0
4337,-1.0
4338,36.0
4339,-2.0
4340,-43.0
4341,33.0
4342,7.0
4343,-2.0
4344,-35.0
4345,25.0
4346,-2.0
4347,10.0
4348,-41.0
4349,9.0
4350,15.0
4351,-1.0
4352,-30.0
4353,23.0
4354,12.0
4355,-12.0
4356,-18.0
4357,6.0
4358,14.0
4359,-12.0
4360,3.0
4361,24.0
4362,-6.0
4363,-33.0
4364,-28.0
4365,1.0
4366,19.0
4367,8.0
4368,-31.0
4369,-7.0
4370,27.0
4371,7.0
4372,-6.0
4373,-5.0
4374,23.0
4375,-12.0
4376,16.0
4377,-9.0
4378,10.0
4379,-25.0
4380,-2.0
4381,6.0
4382,-15.0
4383,-5.0
4384,-32.0
4385,11.0
4386,-4.0
4387,11.0
4388,-26.0
4389,7.0
4390,16.0
4391,-7.0
4392,-13.0
4393,3.0
4394,3.0
4395,2.0
4396,-18.0
4397,1.0
4398,14.0
4399,-1.0
4400,10.0
4401,-1.0
4402,10.0
4403,-31.0
4404,-30.0
4405,19.0
4406,-23.0
4407,23.0
4408,-28.0
4409,0.0
4410,11.0
4411,14.0
4412,-4.0
4413,2.0
4414,12.0
4415,-11.0
4416,-17.0
4417,-9.0
4418,10.0
4419,9.0
4420,-32.0
4421,25.0
4422,16.0
4423,-14.0
4424,-6.0
4425,15.0
4426,-28.0
4427,6.0
4428,-34.0
4429,26.0
4430,-5.0
4431,9.0
4432,-39.0
4433,32.0
4434,11.0
4435,-13.0
4436,-10.0
4437,6.0
4438,-4.0
4439,5.0
4440,-11.0
4441,-5.0
4442,-3.0
4443,17.0
4444,15.0
4445,2.0
4446,-12.0
4447,0.0
4448,-11.0
4449,6.0
4450,14.0
4451,-10.0
4452,-16.0
4453,-2.0
4454,9.0
4455,1.0
4456,14.0
4457,-13.0
4458,-8.0
4459,2.0
4460,-25.0
4461,2.0
4462,26.0
4463,2.0
4464,-18.0
4465,11.0
4466,13.0
4467,-9.0
4468,-11.0
4469,31.0
4470,-24.0
4471,0.0
4472,-7.0
4473,6.0
4474,8.0
4475,-20.0
4476,9.0
4477,-27.0
4478,15.0
4479,-10.0
4480,0.0
4481,-10.0
4482,11.0
4483,-7.0
4484,-10.0
4485,20.0
4486,16.0
4487,-24.0
4488,-22.0
4489,-17.0
4490,26.0
4491,4.0
4492,-13.0
4493,8.0
4494,-5.0
4495,2.0
4496,-20.0
4497,20.0
4498,6.0
4499,-8.0
4500,-1.0
4501,0.0
4502,4.0
4503,-8.0
4504,2.0
4505,-11.0
4506,-1.0
4507,10.0
4508,-34.0
4509,10.0
4510,21.0
4511,5.0
4512,-20.0
4513,7.0
4514,9.0
4515,-7.0
4516,-2.0
4517,12.0
4518,-17.0
4519,0.0
4520,-6.0
4521,-11.0
4522,8.0
4523,12.0
4524,-12.0
4525,29.0
4526,-10.0
4527,-4.0
4528,1.0
4529,2.0
4530,-10.0
4531,11.0
4532,4.0
4533,3.0
4534,7.0
4535,-15.0
4536,4.0
4537,-1.0
4538,18.0
4539,-17.0
4540,-26.0
4541,-9.0
4542,-5.0
4543,33.0
4544,2.0
4545,-7.0
4546,-2.0
4547,2.0
4548,-10.0
4549,7.0
4550,9.0
4551,-6.0
4552,-15.0
4553,7.0
4554,4.0
4555,4.0
4556,-24.0
4557,12.0
4558,13.0
4559,7.0
4560,-10.0
4561,-7.0
4562,14.0
4563,3.0
4564,-8.0
4565,6.0
4566,-2.0
4567,2.0
4568,0.0
4569,-14.0
4570,10.0
4571,11.0
4572,5.0
4573,-22.0
4574,0.0
4575,24.0
4576,1.0
4577,2.0
4578,15.0
4579,-8.0
4580,0.0
4581,6.0
4582,-9.0
4583,4.0
4584,0.0
4585,-25.0
4586,28.0
4587,4.0
4588,-19.0
4589,10.0
4590,23.0
4591,-3.0
4592,1.0
4593,-7.0
4594,9.0
4595,10.0
4596,17.0
4597,-11.0
4598,8.0
4599,-18.0
4600,-7.0
4601,16.0
4602,2.0
4603,7.0
4604,4.0
4605,5.0
4606,-11.0
4607,13.0
4608,-7.0
4609,-8.0
4610,20.0
4611,15.0
4612,-6.0
4613,-2.0
4614,17.0
4615,4.0
4616,3.0
4617,23.0
4618,-25.0
4619,11.0
4620,18.0
4621,-39.0
4622,-3.0
4623,41.0
4624,-6.0
4625,12.0
4626,14.0
4627,0.0
4628,-26.0
4629,7.0
4630,6.0
4631,31.0
4632,-2.0
4633,7.0
4634,-1.0
4635,1.0
4636,10.0
4637,8.0
4638,-25.0
4639,11.0
4640,-21.0
4641,6.0
4642,4.0
4643,20.0
4644,12.0
4645,-19.0
4646,2.0
4647,17.0
4648,-7.0
4649,2.0
4650,3.0
4651,13.0
4652,12.0
4653,-15.0
4654,9.0
4655,2.0
4656,-1.0
4657,-7.0
4658,33.0
4659,-15.0
4660,-14.0
4661,-2.0
4662,-3.0
4663,27.0
4664,-28.0
4665,1.0
4666,1.0
4667,27.0
4668,-22.0
4669,9.0
4670,3.0
4671,17.0
4672,-17.0
4673,-4.0
4674,9.0
4675,23.0
4676,-27.0
4677,24.0
4678,-11.0
4679,31.0
4680,-32.0
4681,17.0
4682,3.0
4683,27.0
4684,-24.0
4685,21.0
4686,2.0
4687,4.0
4688,4.0
4689,12.0
4690,-18.0
4691,15.0
4692,-28.0
4693,5.0
4694,11.0
4695,24.0
4696,8.0
4697,-8.0
4698,-2.0
4699,11.0
4700,-27.0
4701,-1.0
4702,21.0
4703,20.0
4704,-28.0
4705,-4.0
4706,18.0
4707,32.0
4708,-15.0
4709,18.0
4710,10.0
4711,10.0
4712,-20.0
4713,-9.0
4714,-2.0
4715,37.0
4716,-25.0
4717,8.0
4718,-9.0
4719,41.0
4720,-1.0
4721,21.0
4722,-29.0
4723,21.0
4724,-8.0
4725,21.0
4726,6.0
4727,3.0
4728,-2.0
4729,14.0
4730,-8.0
4731,4.0
4732,-4.0
4733,3.0
4734,-15.0
4735,29.0
4736,-16.0
4737,30.0
4738,-22.0
4739,16.0
4740,-18.0
4741,23.0
4742,-3.0
4743,5.0
4744,7.0
4745,18.0
4746,-22.0
4747,6.0
4748,14.0
4749,10.0
4750,-25.0
4751,20.0
4752,-1.0
4753,-15.0
4754,-10.0
4755,39.0
4756,-10.0
4757,5.0
4758,-22.0
4759,41.0
4760,-16.0
4761,1.0
4762,12.0
4763,18.0
4764,-31.0
4765,4.0
4766,-6.0
4767,43.0
4768,18.0
4769,-15.0
4770,3.0
4771,-3.0
4772,0.0
4773,-4.0
4774,-7.0
4775,22.0
4776,8.0
4777,8.0
4778,-27.0
4779,23.0
4780,-17.0
4781,26.0
4782,-26.0
4783,26.0
4784,2.0
4785,6.0
4786,-2.0
4787,11.0
4788,-8.0
4789,20.0
4790,-20.0
4791,22.0
4792,-22.0
4793,8.0
4794,14.0
4795,10.0
4796,-34.0
4797,12.0
4798,10.0
4799,27.0
4800,-12.0
4801,2.0
4802,19.0
4803,11.0
4804,-16.0
4805,1.0
4806,42.0
4807,-14.0
4808,-6.0
4809,2.0
4810,-21.0
4811,33.0
4812,-21.0
4813,16.0
4814,10.0
4815,6.0
4816,-25.0
4817,18.0
4818,20.0
4819,6.0
4820,9.0
4821,-10.0
4822,-8.0
4823,17.0
4824,-11.0
4825,17.0
4826,8.0
4827,3.0
4828,4.0
4829,7.0
4830,10.0
4831,0.0
4832,-11.0
4833,14.0
4834,-3.0
4835,18.0
4836,-19.0
4837,1.0
4838,15.0
4839,32.0
4840,-24.0
4841,31.0
4842,0.0
4843,9.0
4844,-13.0
4845,-14.0
4846,5.0
4847,30.0
4848,-2.0
4849,9.0
4850,-19.0
4851,33.0
4852,19.0
4853,5.0
4854,-20.0
4855,13.0
4856,-3.0
4857,16.0
4858,3.0
4859,5.0
4860,-16.0
4861,-5.0
4862,9.0
4863,34.0
4864,-10.0
4865,12.0
4866,0.0
4867,17.0
4868,-4.0
4869,22.0
4870,13.0
4871,-12.0
4872,-5.0
4873,12.0
4874,-3.0
4875,14.0
4876,18.0
4877,11.0
4878,-11.0
4879,-1.0
4880,9.0
4881,-1.0
4882,10.0
4883,-5.0
4884,-4.0
4885,6.0
4886,10.0
4887,11.0
4888,-11.0
4889,13.0
4890,9.0
4891,7.0
4892,-6.0
4893,19.0
4894,-5.0
4895,7.0
4896,-16.0
4897,-2.0
4898,22.0
4899,10.0
4900,-1.0
4901,14.0
4902,4.0
4903,9.0
4904,-5.0
4905,15.0
4906,3.0
4907,13.0
4908,-37.0
4909,8.0
4910,7.0
4911,39.0
4912,-4.0
4913,-2.0
4914,6.0
4915,24.0
4916,-3.0
4917,5.0
4918,-11.0
4919,26.0
4920,-19.0
4921,19.0
4922,1.0
4923,21.0
4924,0.0
4925,10.0
4926,-5.0
4927,9.0
4928,-19.0
4929,7.0
4930,25.0
4931,10.0
4932,-23.0
4933,4.0
4934,11.0
4935,34.0
4936,-21.0
4937,31.0
4938,-7.0
4939,19.0
4940,-4.0
4941,-3.0
4942,12.0
4943,27.0
4944,-1.0
4945,3.0
4946,-10.0
4947,26.0
4948,8.0
4949,26.0
4950,-14.0
4951,0.0
4952,-3.0
4953,13.0
4954,6.0
4955,14.0
4956,-11.0
4957,30.0
4958,-2.0
4959,8.0
4960,-7.0
4961,24.0
4962,-7.0
4963,8.0
4964,-1.0
4965,14.0
4966,4.0
4967,-3.0
4968,-9.0
4969,10.0
4970,4.0
4971,12.0
4972,-6.0
4973,17.0
4974,-14.0
4975,15.0
4976,-4.0
4977,15.0
4978,5.0
4979,4.0
4980,1.0
4981,5.0
4982,-3.0
4983,18.0
4984,-17.0
4985,11.0
4986,-18.0
4987,24.0
4988,22.0
4989,0.0
4990,-28.0
4991,21.0
4992,-12.0
4993,19.0
4994,-7.0
4995,9.0
4996,-1.0
4997,4.0
4998,-20.0
4999,22.0
5000,-4.0
5001,20.0
5002,-14.0
5003,10.0
5004,2.0
5005,21.0
5006,-7.0
5007,2.0
5008,15.0
5009,1.0
5010,0.0
5011,4.0
5012,-17.0
5013,-10.0
5014,17.0
5015,17.0
5016,-6.0
5017,4.0
5018,18.0
5019,-1.0
5020,-13.0
5021,40.0
5022,-36.0
5023,16.0
5024,3.0
5025,11.0
5026,-14.0
5027,14.0
5028,-25.0
5029,24.0
5030,-9.0
5031,26.0
5032,-9.0
5033,1.0
5034,0.0
5035,18.0
5036,-6.0
5037,-4.0
5038,31.0
5039,-1.0
5040,3.0
5041,16.0
5042,-1.0
5043,1.0
5044,-9.0
5045,16.0
5046,-7.0
5047,13.0
5048,-3.0
5049,25.0
5050,-14.0
5051,-3.0
5052,-22.0
5053,21.0
5054,8.0
5055,8.0
5056,4.0
5057,-4.0
5058,11.0
5059,3.0
5060,-10.0
5061,8.0
5062,-12.0
5063,28.0
5064,-9.0
5065,27.0
5066,-12.0
5067,4.0
5068,2.0
5069,14.0
5070,-8.0
5071,11.0
5072,-20.0
5073,15.0
5074,20.0
5075,-4.0
5076,7.0
5077,33.0
5078,-34.0
5079,2.0
5080,3.0
5081,15.0
5082,-7.0
5083,4.0
5084,5.0
5085,28.0
5086,-10.0
5087,-13.0
5088,-31.0
5089,47.0
5090,15.0
5091,-17.0
5092,-12.0
5093,-6.0
5094,-11.0
5095,28.0
5096,-7.0
5097,29.0
5098,-23.0
5099,14.0
5100,28.0
5101,5.0
5102,-9.0
5103,-4.0
5104,-9.0
5105,27.0
5106,-19.0
5107,7.0
5108,-11.0
5109,22.0
5110,-2.0
5111,4.0
5112,-16.0
5113,37.0
5114,-5.0
5115,-11.0
5116,-35.0
5117,21.0
5118,8.0
5119,15.0
5120,-31.0
5121,24.0
5122,15.0
5123,6.0
5124,-26.0
5125,20.0
5126,5.0
5127,10.0
5128,-27.0
5129,13.0
5130,15.0
5131,5.0
5132,-39.0
5133,28.0
5134,-7.0
5135,21.0
5136,-19.0
5137,17.0
5138,17.0
5139,-4.0
5140,-15.0
5141,10.0
5142,23.0
5143,-5.0
5144,-21.0
5145,18.0
5146,16.0
5147,-5.0
5148,-5.0
5149,20.0
5150,-7.0
5151,5.0
5152,-2.0
5153,1.0
5154,-2.0
5155,14.0
5156,2.0
5157,13.0
5158,-15.0
5159,3.0
5160,-10.0
5161,12.0
5162,1.0
5163,5.0
5164,-18.0
5165,4.0
5166,-16.0
5167,31.0
5168,-27.0
5169,14.0
5170,14.0
5171,3.0
5172,-4.0
5173,21.0
5174,8.0
5175,-22.0
5176,-7.0
5177,7.0
5178,12.0
5179,-11.0
5180,-19.0
5181,33.0
5182,1.0
5183,-13.0
5184,-16.0
5185,1.0
5186,3.0
5187,18.0
5188,-11.0
5189,5.0
5190,6.0
5191,11.0
5192,-2.0
5193,1.0
5194,1.0
5195,5.0
5196,-16.0
5197,13.0
5198,0.0
5199,2.0
5200,5.0
5201,22.0
5202,-7.0
5203,-14.0
5204,-8.0
5205,10.0
5206,1.0
5207,4.0
5208,-22.0
5209,7.0
5210,-1.0
5211,24.0
5212,-45.0
5213,21.0
5214,28.0
5215,-8.0
5216,-14.0
5217,20.0
5218,-15.0
5219,12.0
5220,-31.0
5221,29.0
5222,3.0
5223,1.0
5224,-10.0
5225,17.0
5226,6.0
5227,-5.0
5228,-16.0
5229,15.0
5230,0.0
5231,-5.0
5232,-44.0
5233,5.0
5234,25.0
5235,6.0
5236,-7.0
5237,6.0
5238,8.0
5239,-18.0
5240,-59.0
5241,33.0
5242,17.0
5243,9.0
5244,-2.0
5245,-7.0
5246,7.0
5247,-8.0
5248,-22.0
5249,-1.0
5250,13.0
5251,-6.0
5252,-29.0
5253,17.0
5254,20.0
5255,-14.0
5256,-27.0
5257,9.0
5258,20.0
5259,-10.0
5260,-3.0
5261,-14.0
5262,11.0
5263,0.0
5264,-7.0
5265,12.0
5266,19.0
5267,-27.0
5268,-45.0
5269,24.0
5270,25.0
5271,-4.0
5272,-7.0
5273,15.0
5274,-15.0
5275,-3.0
5276,0.0
5277,-4.0
5278,-7.0
5279,10.0
5280,-22.0
5281,6.0
5282,-2.0
5283,12.0
5284,-25.0
5285,12.0
5286,12.0
5287,-8.0
5288,-18.0
5289,-10.0
5290,12.0
5291,9.0
5292,-22.0
5293,17.0
5294,-9.0
5295,17.0
5296,-52.0
5297,22.0
5298,5.0
5299,24.0
5300,-12.0
5301,8.0
5302,4.0
5303,-2.0
5304,-47.0
5305,13.0
5306,20.0
5307,10.0
5308,-35.0
5309,35.0
5310,-15.0
5311,5.0
5312,-21.0
5313,2.0
5314,5.0
5315,10.0
5316,-39.0
5317,24.0
5318,5.0
5319,6.0
5320,-17.0
5321,15.0
5322,-10.0
5323,4.0
5324,-22.0
5325,0.0
5326,21.0
5327,-8.0
5328,-30.0
5329,17.0
5330,0.0
5331,-6.0
5332,-29.0
5333,0.0
5334,19.0
5335,5.0
5336,-9.0
5337,-4.0
5338,-15.0
5339,14.0
5340,3.0
5341,-7.0
5342,5.0
5343,-8.0
5344,-22.0
5345,10.0
5346,28.0
5347,-21.0
5348,-3.0
5349,16.0
5350,-3.0
5351,-20.0
5352,-13.0
5353,1.0
5354,-6.0
5355,13.0
5356,-28.0
5357,7.0
5358,7.0
5359,4.0
5360,-6.0
5361,15.0
5362,-13.0
5363,-6.0
5364,-30.0
5365,6.0
5366,-2.0
5367,12.0
5368,-18.0
5369,23.0
5370,-1.0
5371,-16.0
5372,-25.0
5373,19.0
5374,1.0
5375,-1.0
5376,-13.0
5377,17.0
5378,-15.0
5379,1.0
5380,-22.0
5381,18.0
5382,20.0
5383,-21.0
5384,0.0
5385,-10.0
5386,-19.0
5387,13.0
5388,-23.0
5389,25.0
5390,-30.0
5391,15.0
5392,-20.0
5393,17.0
5394,-7.0
5395,-1.0
5396,-32.0
5397,40.0
5398,-10.0
5399,-16.0
5400,-52.0
5401,19.0
5402,16.0
5403,9.0
5404,-22.0
5405,19.0
5406,0.0
5407,-5.0
5408,-36.0
5409,2.0
5410,0.0
5411,19.0
5412,-32.0
5413,-8.0
5414,-9.0
5415,29.0
5416,-18.0
5417,17.0
5418,-9.0
5419,-5.0
5420,-64.0
5421,3.0
5422,10.0
5423,40.0
5424,-28.0
5425,1.0
5426,3.0
5427,12.0
5428,-22.0
5429,5.0
5430,4.0
5431,-7.0
5432,-22.0
5433,17.0
5434,3.0
5435,-8.0
5436,-16.0
5437,-10.0
5438,9.0
5439,0.0
5440,-27.0
5441,-6.0
5442,12.0
5443,2.0
5444,-24.0
5445,5.0
5446,7.0
5447,-4.0
5448,-29.0
5449,-16.0
5450,44.0
5451,-10.0
5452,-25.0
5453,7.0
5454,20.0
5455,-12.0
5456,-27.0
5457,6.0
5458,4.0
5459,3.0
5460,-1.0
5461,9.0
5462,-12.0
5463,-13.0
5464,-20.0
5465,3.0
5466,-6.0
5467,6.0
5468,-14.0
5469,-8.0
5470,-2.0
5471,4.0
5472,-18.0
5473,20.0
5474,-23.0
5475,5.0
5476,-28.0
5477,3.0
5478,10.0
5479,-1.0
5480,-34.0
5481,14.0
5482,-11.0
5483,18.0
5484,-5.0
5485,6.0
5486,-4.0
5487,-9.0
5488,-15.0
5489,20.0
5490,-10.0
5491,-10.0
5492,-12.0
5493,15.0
5494,-9.0
5495,-2.0
5496,-13.0
5497,-1.0
5498,-9.0
5499,6.0
5500,-15.0
5501,-4.0
5502,-4.0
5503,1.0
5504,-12.0
5505,17.0
5506,-1.0
5507,-28.0
5508,-8.0
5509,33.0
5510,-23.0
5511,-10.0
5512,-3.0
5513,-7.0
5514,-20.0
5515,13.0
5516,-25.0
5517,22.0
5518,-9.0
5519,-4.0
5520,-10.0
5521,-7.0
5522,-7.0
5523,6.0
5524,-4.0
5525,2.0
5526,3.0
5527,-13.0
5528,-25.0
5529,6.0
5530,14.0
5531,-11.0
5532,-4.0
5533,7.0
5534,-8.0
5535,-25.0
5536,-60.0
5537,34.0
5538,24.0
5539,-17.0
5540,-38.0
5541,10.0
5542,-12.0
5543,26.0
5544,-13.0
5545,37.0
5546,-13.0
5547,-17.0
5548,-19.0
5549,16.0
5550,-4.0
5551,-10.0
5552,-26.0
5553,25.0
5554,8.0
5555,-19.0
5556,-27.0
5557,16.0
5558,5.0
5559,0.0
5560,-21.0
5561,5.0
5562,0.0
5563,-1.0
5564,-16.0
5565,7.0
5566,32.0
5567,-33.0
5568,-10.0
5569,18.0
5570,-5.0
5571,-12.0
5572,-10.0
5573,20.0
5574,-14.0
5575,-4.0
5576,-13.0
5577,27.0
5578,6.0
5579,-42.0
5580,-26.0
5581,26.0
5582,18.0
5583,-30.0
5584,-17.0
5585,2.0
5586,-7.0
5587,15.0
5588,-29.0
5589,14.0
5590,-6.0
5591,9.0
5592,-10.0
5593,21.0
5594,-5.0
5595,-23.0
5596,-15.0
5597,-1.0
5598,8.0
5599,-3.0
5600,-40.0
5601,31.0
5602,12.0
5603,-21.0
5604,-9.0
5605,6.0
5606,2.0
5607,-8.0
5608,-26.0
5609,32.0
5610,-14.0
5611,-3.0
5612,-38.0
5613,9.0
5614,2.0
5615,19.0
5616,-25.0
5617,29.0
5618,8.0
5619,-25.0
5620,-11.0
5621,6.0
5622,-10.0
5623,4.0
5624,-23.0
5625,13.0
5626,-11.0
5627,1.0
5628,-20.0
5629,-2.0
5630,15.0
5631,-2.0
5632,-23.0
5633,-1.0
5634,13.0
5635,1.0
5636,-24.0
5637,16.0
5638,-21.0
5639,24.0
5640,-18.0
5641,6.0
5642,15.0
5643,-16.0
5644,-48.0
5645,30.0
5646,-4.0
5647,8.0
5648,-27.0
5649,16.0
5650,7.0
5651,-1.0
5652,-43.0
5653,8.0
5654,7.0
5655,14.0
5656,-21.0
5657,9.0
5658,12.0
5659,-10.0
5660,-26.0
5661,13.0
5662,2.0
5663,2.0
5664,-7.0
5665,7.0
5666,-2.0
5667,-12.0
5668,3.0
5669,4.0
5670,-12.0
5671,-9.0
5672,-13.0
5673,7.0
5674,5.0
5675,-15.0
5676,-13.0
5677,-11.0
5678,-8.0
5679,22.0
5680,-16.0
5681,5.0
5682,-2.0
5683,5.0
5684,-19.0
5685,-7.0
5686,17.0
5687,-4.0
5688,-37.0
5689,6.0
5690,6.0
5691,21.0
5692,-26.0
5693,16.0
5694,-2.0
5695,7.0
5696,-28.0
5697,4.0
5698,8.0
5699,-1.0
5700,-10.0
5701,3.0
5702,-8.0
5703,5.0
5704,-25.0
5705,23.0
5706,-13.0
5707,6.0
5708,-9.0
5709,-37.0
5710,40.0
5711,-4.0
5712,-8.0
5713,-8.0
5714,-22.0
5715,22.0
5716,-19.0
5717,-1.0
5718,4.0
5719,8.0
5720,-8.0
5721,2.0
5722,-13.0
5723,0.0
5724,-12.0
5725,-2.0
5726,-16.0
5727,23.0
5728,-9.0
5729,9.0
5730,-10.0
5731,0.0
5732,-31.0
5733,3.0
5734,-1.0
5735,10.0
5736,-30.0
5737,-10.0
5738,13.0
5739,10.0
5740,2.0
5741,-8.0
5742,14.0
5743,-9.0
5744,-7.0
5745,19.0
5746,-14.0
5747,-11.0
5748,-18.0
5749,7.0
5750,-11.0
5751,4.0
5752,-2.0
5753,2.0
5754,-14.0
5755,8.0
5756,-4.0
5757,19.0
5758,2.0
5759,-29.0
5760,-2.0
5761,-7.0
5762,-4.0
5763,-1.0
5764,-18.0
5765,11.0
5766,0.0
5767,-10.0
5768,-2.0
5769,14.0
5770,12.0
5771,-36.0
5772,13.0
5773,9.0
5774,-6.0
5775,-29.0
5776,1.0
5777,-20.0
5778,6.0
5779,-6.0
5780,-10.0
5781,-2.0
5782,-19.0
5783,15.0
5784,10.0
5785,-4.0
5786,6.0
5787,-27.0
5788,-14.0
5789,-9.0
5790,9.0
5791,-12.0
5792,-17.0
5793,9.0
5794,20.0
5795,-29.0
5796,-20.0
5797,9.0
5798,4.0
5799,-5.0
5800,3.0
5801,-18.0
5802,-3.0
5803,-7.0
5804,-7.0
5805,-7.0
5806,-18.0
5807,-2.0
5808,-6.0
5809,-25.0
5810,18.0
5811,5.0
5812,-6.0
5813,-9.0
5814,-4.0
5815,-7.0
5816,-39.0
5817,16.0
5818,-1.0
5819,9.0
5820,-29.0
5821,15.0
5822,-17.0
5823,-1.0
5824,-4.0
5825,-22.0
5826,-7.0
5827,1.0
5828,-16.0
5829,-7.0
5830,3.0
5831,-9.0
5832,-22.0
5833,-4.0
5834,13.0
5835,-12.0
5836,4.0
5837,-7.0
5838,-18.0
5839,-10.0
5840,0.0
5841,-7.0
5842,-4.0
5843,-13.0
5844,-25.0
5845,9.0
5846,-17.0
5847,12.0
5848,-45.0
5849,23.0
5850,10.0
5851,-15.0
5852,-22.0
5853,-12.0
5854,10.0
5855,-10.0
5856,-15.0
5857,-11.0
5858,-2.0
5859,2.0
5860,-22.0
5861,-4.0
5862,3.0
5863,-3.0
5864,-16.0
5865,0.0
5866,-5.0
5867,-11.0
5868,-28.0
5869,3.0
5870,-5.0
5871,-2.0
5872,-17.0
5873,5.0
5874,-15.0
5875,0.0
5876,-39.0
5877,10.0
5878,-1.0
5879,-5.0
5880,-35.0
5881,5.0
5882,3.0
5883,-2.0
5884,-1.0
5885,-8.0
5886,-17.0
5887,-13.0
5888,-28.0
5889,-2.0
5890,-9.0
5891,-2.0
5892,-18.0
5893,-19.0
5894,5.0
5895,-17.0
5896,-10.0
5897,12.0
5898,-21.0
5899,-24.0
5900,-20.0
5901,-11.0
5902,-7.0
5903,-9.0
5904,-8.0
5905,-17.0
5906,-5.0
5907,-16.0
5908,-4.0
5909,2.0
5910,-29.0
5911,-14.0
5912,9.0
5913,-23.0
5914,-1.0
5915,-31.0
5916,6.0
5917,-17.0
5918,-2.0
5919,-30.0
5920,-33.0
5921,-7.0
5922,-3.0
5923,-10.0
5924,-6.0
5925,-19.0
5926,-12.0
5927,-15.0
5928,-22.0
5929,-11.0
5930,-24.0
5931,-6.0
5932,-22.0
5933,-4.0
5934,-26.0
5935,-2.0
5936,-25.0
5937,-11.0
5938,-11.0
5939,-17.0
5940,-6.0
5941,-9.0
5942,-9.0
5943,-40.0
5944,1.0
5945,-5.0
5946,-32.0
5947,-30.0
5948,-6.0
5949,-31.0
5950,-19.0
5951,-10.0
5952,0.0
5953,-21.0
5954,-24.0
5955,-15.0
5956,-23.0
5957,-7.0
5958,-17.0
5959,-25.0
5960,-28.0
5961,-12.0
5962,-13.0
5963,-12.0
5964,5.0
5965,-16.0
5966,-13.0
5967,-39.0
5968,-10.0
5969,-35.0
5970,-5.0
5971,-18.0
5972,-42.0
5973,-3.0
5974,1.0
5975,-25.0
5976,-32.0
5977,-8.0
5978,-19.0
5979,-14.0
5980,-15.0
5981,-27.0
5982,-29.0
5983,-3.0
5984,-14.0
5985,2.0
5986,-13.0
5987,-47.0
5988,-6.0
5989,-24.0
5990,-17.0
5991,-28.0
5992,-29.0
5993,-24.0
5994,-2.0
5995,-21.0
5996,-20.0
5997,-25.0
5998,-13.0
5999,-28.0
6000,-9.0
6001,-27.0
6002,-13.0
6003,-24.0
6004,-31.0
6005,-5.0
6006,-6.0
6007,-19.0
6008,-29.0
6009,-25.0
6010,-3.0
6011,-9.0
6012,-23.0
6013,-44.0
6014,5.0
6015,-4.0
6016,-12.0
6017,-18.0
6018,-8.0
6019,-16.0
6020,-5.0
6021,-14.0
6022,-10.0
6023,-18.0
6024,-16.0
6025,-23.0
6026,-11.0
6027,-2.0
6028,-30.0
6029,-6.0
6030,-5.0
6031,-14.0
6032,-25.0
6033,2.0
6034,-4.0
6035,-12.0
6036,-3.0
6037,-24.0
6038,-13.0
6039,-5.0
6040,-3.0
6041,-23.0
6042,0.0
6043,-16.0
6044,-6.0
6045,-17.0
6046,-7.0
6047,-16.0
6048,-14.0
6049,-17.0
6050,20.0
6051,-32.0
6052,5.0
6053,5.0
6054,-18.0
6055,-34.0
6056,-15.0
6057,-5.0
6058,-20.0
6059,3.0
6060,-23.0
6061,-20.0
6062,19.0
6063,-18.0
6064,-38.0
6065,7.0
6066,-28.0
6067,16.0
6068,-6.0
6069,-33.0
6070,-4.0
6071,-4.0
6072,-14.0
6073,-1.0
6074,4.0
6075,-22.0
6076,-30.0
6077,0.0
6078,-13.0
6079,2.0
6080,-24.0
6081,4.0
6082,25.0
6083,-46.0
6084,-2.0
6085,-8.0
6086,-4.0
6087,-21.0
6088,-22.0
6089,9.0
6090,1.0
6091,-26.0
6092,-28.0
6093,-5.0
6094,-2.0
6095,-14.0
6096,-2.0
6097,-41.0
6098,-3.0
6099,6.0
6100,-48.0
6101,-7.0
6102,2.0
6103,8.0
6104,-22.0
6105,-35.0
6106,-2.0
6107,10.0
6108,-26.0
6109,-12.0
6110,10.0
6111,-28.0
6112,-25.0
6113,-23.0
6114,13.0
6115,-12.0
6116,-9.0
6117,-35.0
6118,-5.0
6119,0.0
6120,-14.0
6121,-29.0
6122,-19.0
6123,13.0
6124,-20.0
6125,-15.0
6126,-5.0
6127,-5.0
6128,-14.0
6129,-17.0
6130,-32.0
6131,17.0
6132,-4.0
6133,-38.0
6134,-12.0
6135,-1.0
6136,-4.0
6137,-25.0
6138,-6.0
6139,-8.0
6140,-2.0
6141,-26.0
6142,2.0
6143,-3.0
6144,2.0
6145,-29.0
6146,-8.0
6147,-17.0
6148,-32.0
6149,-15.0
6150,10.0
6151,-6.0
6152,-28.0
6153,-3.0
6154,-6.0
6155,-3.0
6156,-16.0
6157,-16.0
6158,-13.0
6159,0.0
6160,-30.0
6161,-19.0
6162,-2.0
6163,8.0
6164,-4.0
6165,-17.0
6166,-25.0
6167,10.0
6168,-20.0
6169,-20.0
6170,7.0
6171,-7.0
6172,-6.0
6173,-5.0
6174,-4.0
6175,-24.0
6176,-3.0
6177,-14.0
6178,-12.0
6179,-2.0
6180,-10.0
6181,-20.0
6182,2.0
6183,-3.0
6184,-23.0
6185,10.0
6186,-16.0
6187,-8.0
6188,-31.0
6189,-6.0
6190,-14.0
6191,19.0
6192,-4.0
6193,-23.0
6194,-1.0
6195,1.0
6196,-12.0
6197,-20.0
6198,16.0
6199,-12.0
6200,-7.0
6201,-31.0
6202,1.0
6203,-5.0
6204,-4.0
6205,-19.0
6206,-1.0
6207,-10.0
6208,-8.0
6209,-18.0
6210,4.0
6211,-9.0
6212,-7.0
6213,-26.0
6214,0.0
6215,0.0
6216,-12.0
6217,-16.0
6218,-2.0
6219,-12.0
6220,-26.0
6221,-18.0
6222,2.0
6223,-4.0
6224,-2.0
6225,1.0
6226,-21.0
6227,-17.0
6228,-25.0
6229,-46.0
6230,20.0
6231,10.0
6232,-7.0
6233,-19.0
6234,-6.0
6235,-11.0
6236,-42.0
6237,-13.0
6238,29.0
6239,-18.0
6240,-23.0
6241,4.0
6242,-13.0
6243,-8.0
6244,-24.0
6245,-13.0
6246,1.0
6247,1.0
6248,1.0
6249,-9.0
6250,-21.0
6251,-11.0
6252,-31.0
6253,-23.0
6254,13.0
6255,4.0
6256,-2.0
6257,-24.0
6258,3.0
6259,-13.0
6260,-18.0
6261,-10.0
6262,13.0
6263,-12.0
6264,-23.0
6265,-5.0
6266,-20.0
6267,12.0
6268,-10.0
6269,-23.0
6270,6.0
6271,-10.0
6272,-23.0
6273,-28.0
6274,21.0
6275,-5.0
6276,-15.0
6277,-15.0
6278,17.0
6279,-6.0
6280,-23.0
6281,-20.0
6282,-7.0
6283,26.0
6284,-5.0
6285,5.0
6286,2.0
6287,-41.0
6288,-16.0
6289,-13.0
6290,7.0
6291,-12.0
6292,-28.0
6293,-33.0
6294,14.0
6295,16.0
6296,-29.0
6297,-2.0
6298,-1.0
6299,-5.0
6300,-15.0
6301,-31.0
6302,-9.0
6303,13.0
6304,-20.0
6305,-19.0
6306,4.0
6307,-11.0
6308,-19.0
6309,-27.0
6310,4.0
6311,9.0
6312,-7.0
6313,-14.0
6314,-10.0
6315,4.0
6316,-27.0
6317,-3.0
6318,-3.0
6319,-6.0
6320,-31.0
6321,-21.0
6322,3.0
6323,14.0
6324,-22.0
6325,-10.0
6326,-3.0
6327,-10.0
6328,-22.0
6329,-7.0
6330,6.0
6331,-18.0
6332,1.0
6333,-17.0
6334,-1.0
6335,-19.0
6336,-23.0
6337,-12.0
6338,5.0
6339,-4.0
6340,-24.0
6341,-5.0
6342,-16.0
6343,-4.0
6344,-13.0
6345,-31.0
6346,-1.0
6347,4.0
6348,-15.0
6349,9.0
6350,-2.0
6351,-26.0
6352,0.0
6353,-14.0
6354,-9.0
6355,-14.0
6356,-5.0
6357,-26.0
6358,2.0
6359,-10.0
6360,-35.0
6361,-12.0
6362,1.0
6363,-3.0
6364,-9.0
6365,-13.0
6366,5.0
6367,-25.0
6368,0.0
6369,-22.0
6370,-4.0
6371,-8.0
6372,-5.0
6373,-21.0
6374,-20.0
6375,4.0
6376,-5.0
6377,-30.0
6378,4.0
6379,-10.0
6380,-10.0
6381,-3.0
6382,-2.0
6383,-22.0
6384,-4.0
6385,-17.0
6386,-2.0
6387,-13.0
6388,-15.0
6389,-12.0
6390,-3.0
6391,-5.0
6392,-7.0
6393,-31.0
6394,15.0
6395,-19.0
6396,1.0
6397,-17.0
6398,-10.0
6399,-10.0
6400,-8.0
6401,-27.0
6402,2.0
6403,-8.0
6404,9.0
6405,-44.0
6406,-9.0
6407,7.0
6408,-13.0
6409,-23.0
6410,-11.0
6411,8.0
6412,-22.0
6413,-14.0
6414,-12.0
6415,13.0
6416,-12.0
6417,-12.0
6418,-21.0
6419,12.0
6420,-9.0
6421,-21.0
6422,-10.0
6423,1.0
6424,-22.0
6425,-6.0
6426,-8.0
6427,-6.0
6428,-15.0
6429,-7.0
6430,-13.0
6431,2.0
6432,-12.0
6433,-22.0
6434,10.0
6435,-12.0
6436,-32.0
6437,-12.0
6438,-6.0
6439,20.0
6440,-24.0
6441,2.0
6442,-10.0
6443,4.0
6444,-10.0
6445,-8.0
6446,-7.0
6447,-5.0
6448,-25.0
6449,-5.0
6450,6.0
6451,-5.0
6452,-7.0
6453,-17.0
6454,14.0
6455,-9.0
6456,-16.0
6457,-13.0
6458,1.0
6459,6.0
6460,2.0
6461,-20.0
6462,-15.0
6463,0.0
6464,-12.0
6465,-9.0
6466,6.0
6467,-5.0
6468,-22.0
6469,-12.0
6470,18.0
6471,-6.0
6472,1.0
6473,-22.0
6474,9.0
6475,-15.0
6476,-10.0
6477,-33.0
6478,6.0
6479,5.0
6480,-2.0
6481,-30.0
6482,2.0
6483,0.0
6484,8.0
6485,-17.0
6486,-1.0
6487,-13.0
6488,0.0
6489,-19.0
6490,4.0
6491,-11.0
6492,-4.0
6493,-23.0
6494,8.0
6495,-11.0
6496,-8.0
6497,-14.0
6498,0.0
6499,-7.0
6500,-9.0
6501,-2.0
6502,-9.0
6503,-3.0
6504,-17.0
6505,-12.0
6506,-7.0
6507,18.0
6508,-14.0
6509,-15.0
6510,10.0
6511,-11.0
6512,-9.0
6513,-17.0
6514,-9.0
6515,7.0
6516,-1.0
6517,-14.0
6518,-1.0
6519,-15.0
6520,-17.0
6521,16.0
6522,-10.0
6523,-18.0
6524,-23.0
6525,-21.0
6526,13.0
6527,3.0
6528,-18.0
6529,-32.0
6530,13.0
6531,5.0
6532,-21.0
6533,-5.0
6534,2.0
6535,1.0
6536,-14.0
6537,-7.0
6538,-16.0
6539,12.0
6540,-12.0
6541,-3.0
6542,-11.0
6543,0.0
6544,14.0
6545,-20.0
6546,-23.0
6547,4.0
6548,-9.0
6549,-13.0
6550,-5.0
6551,-7.0
6552,-6.0
6553,-9.0
6554,-2.0
6555,-10.0
6556,-11.0
6557,-3.0
6558,1.0
6559,-16.0
6560,-12.0
6561,6.0
6562,-8.0
6563,-11.0
6564,-12.0
6565,-11.0
6566,29.0
6567,-27.0
6568,-15.0
6569,-13.0
6570,2.0
6571,-4.0
6572,-2.0
6573,-4.0
6574,-11.0
6575,-3.0
6576,-16.0
6577,-9.0
6578,5.0
6579,-3.0
6580,-17.0
6581,-15.0
6582,3.0
6583,6.0
6584,5.0
6585,-10.0
6586,-12.0
6587,-7.0
6588,-15.0
6589,-19.0
6590,8.0
6591,2.0
6592,-15.0
6593,-10.0
6594,11.0
6595,-12.0
6596,-7.0
6597,-24.0
6598,-14.0
6599,20.0
6600,2.0
6601,-4.0
6602,-13.0
6603,-2.0
6604,-13.0
6605,4.0
6606,-21.0
6607,12.0
6608,-2.0
6609,-4.0
6610,-6.0
6611,-5.0
6612,-5.0
6613,-5.0
6614,3.0
6615,-9.0
6616,-8.0
6617,-7.0
6618,-11.0
6619,3.0
6620,8.0
6621,-20.0
6622,-2.0
6623,-4.0
6624,1.0
6625,-14.0
6626,-7.0
6627,5.0
6628,-21.0
6629,-10.0
6630,13.0
6631,1.0
6632,-10.0
6633,6.0
6634,-12.0
6635,-1.0
6636,7.0
6637,-17.0
6638,11.0
6639,-8.0
6640,-19.0
6641,-8.0
6642,14.0
6643,2.0
6644,1.0
6645,-6.0
6646,2.0
6647,-3.0
6648,-9.0
6649,0.0
6650,-4.0
6651,9.0
6652,-1.0
6653,-1.0
6654,2.0
6655,-4.0
6656,-11.0
6657,-16.0
6658,17.0
6659,3.0
6660,-1.0
6661,-4.0
6662,4.0
6663,2.0
6664,-2.0
6665,-1.0
6666,24.0
6667,-20.0
6668,9.0
6669,1.0
6670,0.0
6671,-13.0
6672,-27.0
6673,-8.0
6674,19.0
6675,15.0
6676,1.0
6677,-6.0
6678,4.0
6679,7.0
6680,13.0
6681,-21.0
6682,8.0
6683,4.0
6684,-10.0
6685,-4.0
6686,13.0
6687,-6.0
6688,-1.0
6689,-18.0
6690,10.0
6691,-4.0
6692,10.0
6693,-9.0
6694,8.0
6695,-18.0
6696,2.0
6697,-10.0
6698,13.0
6699,-14.0
6700,-10.0
6701,-8.0
6702,25.0
6703,-17.0
6704,-1.0
6705,-21.0
6706,20.0
6707,-8.0
6708,-11.0
6709,18.0
6710,3.0
6711,-16.0
6712,-15.0
6713,1.0
6714,4.0
6715,-2.0
6716,0.0
6717,-21.0
6718,4.0
6719,7.0
6720,-17.0
6721,0.0
6722,8.0
6723,-7.0
6724,1.0
6725,-26.0
6726,12.0
6727,7.0
6728,-5.0
6729,-16.0
6730,1.0
6731,10.0
6732,-14.0
6733,-3.0
6734,11.0
6735,-6.0
6736,-14.0
6737,-7.0
6738,13.0
6739,-7.0
6740,4.0
6741,-15.0
6742,13.0
6743,-21.0
6744,-6.0
6745,1.0
6746,-3.0
6747,-7.0
6748,-4.0
6749,-14.0
6750,7.0
6751,-4.0
6752,3.0
6753,-12.0
6754,-2.0
6755,-11.0
6756,-13.0
6757,6.0
6758,-25.0
6759,14.0
6760,-13.0
6761,-13.0
6762,9.0
6763,-1.0
6764,-18.0
6765,-19.0
6766,17.0
6767,5.0
6768,-17.0
6769,-17.0
6770,2.0
6771,7.0
6772,-25.0
6773,1.0
6774,-7.0
6775,10.0
6776,-23.0
6777,-5.0
6778,24.0
6779,-18.0
6780,-5.0
6781,-19.0
6782,1.0
6783,2.0
6784,-11.0
6785,-16.0
6786,2.0
6787,10.0
6788,-6.0
6789,-2.0
6790,0.0
6791,-10.0
6792,-21.0
6793,-14.0
6794,10.0
6795,3.0
6796,-15.0
6797,-18.0
6798,18.0
6799,-7.0
6800,-8.0
6801,-7.0
6802,8.0
6803,-15.0
6804,-4.0
6805,-5.0
6806,12.0
6807,-21.0
6808,-7.0
6809,5.0
6810,8.0
6811,-28.0
6812,-1.0
6813,-21.0
6814,-6.0
6815,7.0
6816,9.0
6817,-12.0
6818,7.0
6819,-20.0
6820,0.0
6821,-10.0
6822,1.0
6823,-9.0
6824,-7.0
6825,-19.0
6826,0.0
6827,7.0
6828,4.0
6829,-14.0
6830,-6.0
6831,-6.0
6832,7.0
6833,-12.0
6834,-8.0
6835,-11.0
6836,-13.0
6837,-13.0
6838,3.0
6839,-4.0
6840,0.0
6841,-17.0
6842,1.0
6843,-5.0
6844,-3.0
6845,-16.0
6846,-133.0
6847,131.0
6848,-21.0
6849,-24.0
6850,29.0
6851,-7.0
6852,-3.0
6853,-1.0
6854,-17.0
6855,0.0
6856,-14.0
6857,-8.0
6858,4.0
6859,0.0
6860,-10.0
6861,-8.0
6862,6.0
6863,-6.0
6864,-7.0
6865,9.0
6866,-18.0
6867,-1.0
6868,1.0
6869,-9.0
6870,-4.0
6871,-4.0
6872,-5.0
6873,-1.0
6874,7.0
6875,-17.0
6876,-11.0
6877,-8.0
6878,9.0
6879,-9.0
6880,-2.0
6881,2.0
6882,-6.0
6883,-13.0
6884,7.0
6885,-1.0
6886,-13.0
6887,-15.0
6888,6.0
6889,9.0
6890,-21.0
6891,-13.0
6892,-15.0
6893,1.0
6894,-2.0
6895,-1.0
6896,-4.0
6897,-20.0
6898,20.0
6899,-12.0
6900,-10.0
6901,17.0
6902,-7.0
6903,-14.0
6904,-12.0
6905,1.0
6906,5.0
6907,-10.0
6908,-2.0
6909,-16.0
6910,1.0
6911,4.0
6912,-10.0
6913,21.0
6914,-6.0
6915,-20.0
6916,-13.0
6917,-8.0
6918,1.0
6919,1.0
6920,-12.0
6921,1.0
6922,-4.0
6923,-3.0
6924,-14.0
6925,2.0
6926,-8.0
6927,8.0
6928,-11.0
6929,8.0
6930,-13.0
6931,0.0
6932,-13.0
6933,-7.0
6934,8.0
6935,-3.0
6936,-5.0
6937,14.0
6938,-11.0
6939,-8.0
6940,-14.0
6941,9.0
6942,-2.0
6943,-3.0
6944,4.0
6945,2.0
6946,1.0
6947,-16.0
6948,-5.0
6949,-5.0
6950,-2.0
6951,1.0
6952,-13.0
6953,-8.0
6954,4.0
6955,3.0
6956,1.0
6957,-10.0
6958,10.0
6959,-10.0
6960,-5.0
6961,-6.0
6962,-9.0
6963,13.0
6964,-4.0
6965,-8.0
6966,-5.0
6967,10.0
6968,8.0
6969,-4.0
6970,-5.0
6971,-7.0
6972,3.0
6973,-5.0
6974,-6.0
6975,0.0
6976,-1.0
6977,-6.0
6978,1.0
6979,2.0
6980,-9.0
6981,-5.0
6982,3.0
6983,3.0
6984,-7.0
6985,5.0
6986,1.0
6987,-8.0
6988,-3.0
6989,2.0
6990,-2.0
6991,-4.0
6992,-7.0
6993,-1.0
6994,-7.0
6995,9.0
6996,0.0
6997,-5.0
6998,4.0
6999,-5.0
7000,-18.0
7001,-3.0
7002,18.0
7003,0.0
7004,7.0
7005,-8.0
7006,-8.0
7007,5.0
7008,1.0
7009,-13.0
7010,-5.0
7011,8.0
7012,-11.0
7013,2.0
7014,10.0
7015,-9.0
7016,-1.0
7017,-4.0
7018,14.0
7019,-10.0
7020,-8.0
7021,-13.0
7022,10.0
7023,1.0
7024,3.0
7025,3.0
7026,1.0
7027,-16.0
7028,5.0
7029,-3.0
7030,7.0
7031,-16.0
7032,-6.0
7033,-2.0
7034,6.0
7035,-5.0
7036,-2.0
7037,2.0
7038,8.0
7039,-14.0
7040,-6.0
7041,1.0
7042,14.0
7043,-12.0
7044,-7.0
7045,2.0
7046,9.0
7047,-7.0
7048,6.0
7049,2.0
7050,1.0
7051,-8.0
7052,-14.0
7053,2.0
7054,11.0
7055,0.0
7056,-2.0
7057,-3.0
7058,5.0
7059,-3.0
7060,1.0
7061,-2.0
7062,-3.0
7063,-2.0
7064,-18.0
7065,-16.0
7066,23.0
7067,5.0
7068,7.0
7069,-2.0
7070,0.0
7071,-11.0
7072,3.0
7073,-12.0
7074,8.0
7075,-2.0
7076,1.0
7077,-6.0
7078,6.0
7079,-6.0
7080,1.0
7081,3.0
7082,6.0
7083,-18.0
7084,-5.0
7085,8.0
7086,-4.0
7087,-6.0
7088,2.0
7089,-1.0
7090,12.0
7091,-19.0
7092,4.0
7093,-6.0
7094,-1.0
7095,-3.0
7096,-9.0
7097,-9.0
7098,-1.0
7099,15.0
7100,12.0
7101,4.0
7102,-23.0
7103,-3.0
7104,3.0
7105,-2.0
7106,3.0
7107,-13.0
7108,7.0
7109,-9.0
7110,-6.0
7111,3.0
7112,14.0
7113,-2.0
7114,-18.0
7115,0.0
7116,-11.0
7117,-8.0
7118,7.0
7119,7.0
7120,-11.0
7121,11.0
7122,0.0
7123,-4.0
7124,7.0
7125,-6.0
7126,4.0
7127,-6.0
7128,2.0
7129,4.0
7130,3.0
7131,-10.0
7132,-25.0
7133,11.0
7134,1.0
7135,8.0
7136,-5.0
7137,2.0
7138,-5.0
7139,5.0
7140,-12.0
7141,-5.0
7142,9.0
7143,8.0
7144,-11.0
7145,-5.0
7146,4.0
7147,10.0
7148,2.0
7149,6.0
7150,-10.0
7151,1.0
7152,3.0
7153,3.0
7154,2.0
7155,-14.0
7156,-2.0
7157,-5.0
7158,4.0
7159,-5.0
7160,-14.0
7161,-1.0
7162,8.0
7163,-2.0
7164,-6.0
7165,3.0
7166,8.0
7167,-9.0
7168,4.0
7169,-21.0
7170,10.0
7171,1.0
7172,-1.0
7173,-7.0
7174,3.0
7175,-2.0
7176,-2.0
7177,1.0
7178,3.0
7179,-9.0
7180,1.0
7181,1.0
7182,-3.0
7183,1.0
7184,-5.0
7185,-1.0
7186,1.0
7187,0.0
7188,21.0
7189,-4.0
7190,-9.0
7191,-14.0
7192,3.0
7193,-8.0
7194,4.0
7195,-4.0
7196,6.0
7197,-2.0
7198,0.0
7199,-11.0
7200,-4.0
7201,2.0
7202,4.0
7203,-5.0
7204,-10.0
7205,-5.0
7206,12.0
7207,-2.0
7208,-15.0
7209,2.0
7210,8.0
7211,1.0
7212,2.0
7213,-8.0
7214,-5.0
7215,7.0
7216,-4.0
7217,-4.0
7218,3.0
7219,3.0
7220,11.0
7221,1.0
7222,0.0
7223,-12.0
7224,-7.0
7225,-4.0
7226,7.0
7227,2.0
7228,-4.0
7229,3.0
7230,3.0
7231,-4.0
7232,-1.0
7233,3.0
7234,-3.0
7235,-4.0
7236,7.0
7237,1.0
7238,-14.0
7239,2.0
7240,3.0
7241,-1.0
7242,-9.0
7243,4.0
7244,-4.0
7245,-6.0
7246,1.0
7247,3.0
7248,2.0
7249,-4.0
7250,-2.0
7251,0.0
7252,12.0
7253,1.0
7254,-9.0
7255,-7.0
7256,4.0
7257,7.0
7258,-11.0
7259,-1.0
7260,1.0
7261,2.0
7262,2.0
7263,-4.0
7264,-7.0
7265,4.0
7266,-2.0
7267,2.0
7268,-2.0
7269,-9.0
7270,4.0
7271,4.0
7272,0.0
7273,1.0
7274,2.0
7275,-7.0
7276,9.0
7277,-10.0
7278,6.0
7279,-6.0
7280,-13.0
7281,9.0
7282,-5.0
7283,5.0
7284,8.0
7285,-3.0
7286,-4.0
7287,-4.0
7288,4.0
7289,2.0
7290,0.0
7291,-8.0
7292,-1.0
7293,-3.0
7294,4.0
7295,-4.0
7296,1.0
7297,-7.0
7298,-8.0
7299,10.0
7300,0.0
7301,-3.0
7302,6.0
7303,-3.0
7304,12.0
7305,-4.0
7306,5.0
7307,-12.0
7308,-2.0
7309,-11.0
7310,0.0
7311,13.0
7312,-4.0
7313,5.0
7314,-2.0
7315,3.0
7316,-5.0
7317,1.0
7318,10.0
7319,-2.0
7320,2.0
7321,-7.0
7322,10.0
7323,-2.0
7324,0.0
7325,7.0
7326,-1.0
7327,-4.0
7328,7.0
7329,-5.0
7330,-2.0
7331,4.0
7332,13.0
7333,-7.0
7334,-3.0
7335,0.0
7336,-3.0
7337,3.0
7338,6.0
7339,-1.0
7340,-13.0
7341,-3.0
7342,10.0
7343,11.0
7344,-1.0
7345,1.0
7346,-4.0
7347,10.0
7348,-3.0
7349,13.0
7350,3.0
7351,-5.0
7352,0.0
7353,16.0
7354,-9.0
7355,-1.0
7356,21.0
7357,-12.0
7358,-2.0
7359,0.0
7360,6.0
7361,3.0
7362,2.0
7363,-3.0
7364,-1.0
7365,2.0
7366,1.0
7367,2.0
7368,7.0
7369,-1.0
7370,-1.0
7371,-1.0
7372,6.0
7373,-1.0
7374,-1.0
7375,2.0
7376,-10.0
7377,-1.0
7378,7.0
7379,4.0
7380,1.0
7381,-9.0
7382,18.0
7383,-9.0
7384,2.0
7385,-1.0
7386,-2.0
7387,4.0
7388,3.0
7389,-7.0
7390,-3.0
7391,7.0
7392,-11.0
7393,5.0
7394,-7.0
7395,13.0
7396,3.0
7397,-3.0
7398,1.0
7399,1.0
7400,5.0
7401,3.0
7402,1.0
7403,-10.0
7404,13.0
7405,-2.0
7406,-4.0
7407,-4.0
7408,0.0
7409,3.0
7410,-2.0
7411,4.0
7412,-1.0
7413,0.0
7414,-1.0
7415,3.0
7416,1.0
7417,1.0
7418,0.0
7419,0.0
7420,2.0
7421,-4.0
7422,-6.0
7423,11.0
7424,2.0
7425,7.0
7426,-10.0
7427,5.0
7428,-7.0
7429,-3.0
7430,0.0
7431,6.0
7432,12.0
7433,-12.0
7434,-1.0
7435,-1.0
7436,-2.0
7437,-5.0
7438,7.0
7439,-1.0
7440,9.0
7441,-6.0
7442,2.0
7443,-11.0
7444,-8.0
7445,7.0
7446,-4.0
7447,-1.0
7448,3.0
7449,-7.0
7450,-2.0
7451,1.0
7452,-3.0
7453,5.0
7454,-4.0
7455,-5.0
7456,-8.0
7457,-7.0
7458,-5.0
7459,11.0
7460,-4.0
7461,-4.0
7462,4.0
7463,-6.0
7464,-9.0
7465,6.0
7466,1.0
7467,-10.0
7468,-1.0
7469,-6.0
7470,-2.0
7471,-1.0
7472,-5.0
7473,-8.0
7474,7.0
7475,-6.0
7476,-5.0
7477,-11.0
7478,6.0
7479,-1.0
7480,-4.0
7481,-6.0
7482,1.0
7483,-2.0
7484,3.0
7485,-3.0
7486,-4.0
7487,-6.0
7488,-3.0
7489,0.0
7490,3.0
7491,-6.0
7492,-7.0
7493,3.0
7494,-3.0
7495,-2.0
7496,-8.0
7497,4.0
7498,-3.0
7499,1.0
7500,1.0
7501,1.0
7502,-3.0
7503,-5.0
7504,1.0
7505,-4.0
7506,-1.0
7507,-4.0
7508,-6.0
7509,4.0
7510,-7.0
7511,0.0
7512,-6.0
7513,4.0
7514,2.0
7515,-8.0
7516,-8.0
7517,-4.0
7518,4.0
7519,-1.0
7520,-11.0
7521,1.0
7522,5.0
7523,-1.0
7524,-11.0
7525,2.0
7526,3.0
7527,-2.0
7528,-3.0
7529,4.0
7530,-7.0
7531,-2.0
7532,-4.0
7533,5.0
7534,-2.0
7535,-5.0
7536,-6.0
7537,8.0
7538,-9.0
7539,2.0
7540,-4.0
7541,4.0
7542,0.0
7543,-5.0
7544,-5.0
7545,-4.0
7546,-7.0
7547,9.0
7548,6.0
7549,-9.0
7550,-5.0
7551,1.0
7552,4.0
7553,-4.0
7554,-7.0
7555,-3.0
7556,5.0
7557,-12.0
7558,-4.0
7559,1.0
7560,-11.0
7561,-3.0
7562,2.0
7563,5.0
7564,1.0
7565,-5.0
7566,-8.0
7567,2.0
7568,0.0
7569,1.0
7570,-7.0
7571,-3.0
7572,6.0
7573,-7.0
7574,2.0
7575,-9.0
7576,0.0
7577,-8.0
7578,-8.0
7579,5.0
7580,-10.0
7581,8.0
7582,-13.0
7583,3.0
7584,0.0
7585,-9.0
7586,-4.0
7587,3.0
7588,-5.0
7589,-4.0
7590,0.0
7591,1.0
7592,-1.0
7593,-1.0
7594,-2.0
7595,-5.0
7596,-6.0
7597,2.0
7598,-8.0
7599,4.0
7600,-1.0
7601,-5.0
7602,-3.0
7603,1.0
7604,1.0
7605,-7.0
7606,-2.0
7607,2.0
7608,2.0
7609,-7.0
7610,-1.0
7611,-1.0
7612,2.0
7613,-4.0
7614,-2.0
7615,-4.0
7616,2.0
7617,2.0
7618,-8.0
7619,-4.0
7620,8.0
7621,-7.0
7622,-7.0
7623,-1.0
7624,-14.0
7625,0.0
7626,6.0
7627,-1.0
7628,-3.0
7629,3.0
7630,1.0
7631,-7.0
7632,-1.0
7633,-3.0
7634,0.0
7635,-4.0
7636,-4.0
7637,-2.0
7638,-3.0
7639,1.0
7640,-7.0
7641,-9.0
7642,5.0
7643,3.0
7644,-9.0
7645,-6.0
7646,0.0
7647,7.0
7648,-4.0
7649,0.0
7650,-4.0
7651,-1.0
7652,4.0
7653,1.0
7654,-7.0
7655,-8.0
7656,-9.0
7657,1.0
7658,2.0
7659,-4.0
7660,3.0
7661,-5.0
7662,0.0
7663,-7.0
7664,7.0
7665,-2.0
7666,-9.0
7667,-6.0
7668,-1.0
7669,-4.0
7670,3.0
7671,-8.0
7672,-7.0
7673,1.0
7674,-4.0
7675,-2.0
7676,3.0
7677,-8.0
7678,-5.0
7679,0.0
7680,-1.0
7681,-8.0
7682,-6.0
7683,4.0
7684,-3.0
7685,-6.0
7686,1.0
7687,-2.0
7688,1.0
7689,-10.0
7690,-1.0
7691,-1.0
7692,9.0
7693,-8.0
7694,-4.0
7695,-5.0
7696,-6.0
7697,4.0
7698,-6.0
7699,-1.0
7700,0.0
7701,-7.0
7702,-7.0
7703,3.0
7704,1.0
7705,1.0
7706,-2.0
7707,-11.0
7708,-6.0
7709,-5.0
7710,2.0
7711,1.0
7712,-9.0
7713,-3.0
7714,3.0
7715,1.0
7716,2.0
7717,-1.0
7718,-5.0
7719,-6.0
7720,-3.0
7721,-4.0
7722,2.0
7723,-9.0
7724,-1.0
7725,-5.0
7726,-5.0
7727,-3.0
7728,-5.0
7729,-2.0
7730,-5.0
7731,0.0
7732,-5.0
7733,-3.0
7734,-2.0
7735,-3.0
7736,10.0
7737,-12.0
7738,-5.0
7739,-5.0
7740,-1.0
7741,-3.0
7742,-7.0
7743,1.0
7744,-2.0
7745,4.0
7746,-6.0
7747,-5.0
7748,1.0
7749,-6.0
7750,-1.0
7751,-3.0
7752,7.0
7753,1.0
7754,-2.0
7755,-15.0
7756,1.0
7757,-2.0
7758,-3.0
7759,-5.0
7760,0.0
7761,-4.0
7762,1.0
7763,-6.0
7764,1.0
7765,-5.0
7766,-4.0
7767,0.0
7768,-3.0
7769,-8.0
7770,-1.0
7771,3.0
7772,0.0
7773,-4.0
7774,0.0
7775,-4.0
7776,-3.0
7777,-2.0
7778,-5.0
7779,-1.0
7780,-4.0
7781,-1.0
7782,-2.0
7783,-4.0
7784,-4.0
7785,2.0
7786,-9.0
7787,0.0
7788,-6.0
7789,1.0
7790,2.0
7791,-8.0
7792,-9.0
7793,-1.0
7794,-6.0
7795,4.0
7796,4.0
7797,-5.0
7798,-6.0
7799,-4.0
7800,-4.0
7801,1.0
7802,-4.0
7803,-5.0
7804,-1.0
7805,-4.0
7806,-7.0
7807,0.0
7808,-2.0
7809,-1.0
7810,-9.0
7811,1.0
7812,-3.0
7813,-9.0
7814,3.0
7815,-1.0
7816,-6.0
7817,-3.0
7818,-7.0
7819,5.0
7820,-7.0
7821,0.0
7822,-5.0
7823,2.0
7824,-1.0
7825,-5.0
7826,-5.0
7827,1.0
7828,-1.0
7829,-6.0
7830,-2.0
7831,-1.0
7832,-4.0
7833,4.0
7834,-5.0
7835,-6.0
7836,-2.0
7837,-2.0
7838,-6.0
7839,-2.0
7840,5.0
7841,-9.0
7842,-3.0
7843,-5.0
7844,-1.0
7845,4.0
7846,-1.0
7847,-12.0
7848,-2.0
7849,0.0
7850,-5.0
7851,-4.0
7852,5.0
7853,0.0
7854,-5.0
7855,-11.0
7856,-1.0
7857,-3.0
7858,-3.0
7859,-4.0
7860,-1.0
7861,-4.0
7862,-8.0
7863,4.0
7864,-1.0
7865,3.0
7866,-5.0
7867,-6.0
7868,-1.0
7869,4.0
7870,-6.0
7871,-6.0
7872,-2.0
7873,-1.0
7874,-5.0
7875,-2.0
7876,-1.0
7877,-2.0
7878,-5.0
7879,-1.0
7880,3.0
7881,-7.0
7882,-3.0
7883,-4.0
7884,-2.0
7885,0.0
7886,-3.0
7887,-4.0
7888,5.0
7889,-5.0
7890,-5.0
7891,-5.0
7892,-1.0
7893,0.0
7894,-2.0
7895,-8.0
7896,3.0
7897,-3.0
7898,-4.0
7899,-8.0
7900,-2.0
7901,-4.0
7902,-2.0
7903,-4.0
7904,-2.0
7905,-2.0
7906,-1.0
7907,-7.0
7908,1.0
7909,-3.0
7910,-3.0
7911,-6.0
7912,4.0
7913,-6.0
7914,-7.0
7915,-5.0
7916,0.0
7917,-1.0
7918,-6.0
7919,-6.0
7920,-4.0
7921,-3.0
7922,-5.0
7923,-1.0
7924,-2.0
7925,-3.0
7926,-5.0
7927,-3.0
7928,-5.0
7929,-5.0
7930,-5.0
7931,1.0
7932,-6.0
7933,-1.0
7934,-7.0
7935,1.0
7936,-3.0
7937,1.0
7938,-6.0
7939,-3.0
7940,-5.0
7941,0.0
7942,0.0
7943,-5.0
7944,-6.0
7945,-4.0
7946,0.0
7947,-1.0
7948,-4.0
7949,2.0
7950,-5.0
7951,-3.0
7952,-5.0
7953,3.0
7954,-1.0
7955,-7.0
7956,-9.0
7957,6.0
7958,-1.0
7959,-6.0
7960,-7.0
7961,-6.0
7962,7.0
7963,-7.0
7964,-6.0
7965,-1.0
7966,1.0
7967,-7.0
7968,-3.0
7969,0.0
7970,-4.0
7971,-9.0
7972,-6.0
7973,1.0
7974,-4.0
7975,-7.0
7976,-6.0
7977,-4.0
7978,-3.0
7979,-3.0
7980,-3.0
7981,-5.0
7982,-6.0
7983,-1.0
7984,-2.0
7985,-4.0
7986,-5.0
7987,-4.0
7988,-1.0
7989,-7.0
7990,-7.0
7991,0.0
7992,-8.0
7993,-5.0
7994,-3.0
7995,-2.0
7996,1.0
7997,-3.0
7998,-8.0
7999,-8.0
8000,-5.0
8001,-2.0
8002,-7.0
8003,-7.0
8004,-3.0
8005,-5.0
8006,-8.0
8007,-5.0
8008,-2.0
8009,-8.0
8010,-4.0
8011,-7.0
8012,-8.0
8013,-4.0
8014,-5.0
8015,-4.0
8016,-1.0
8017,-6.0
8018,-7.0
8019,-7.0
8020,-8.0
8021,-3.0
8022,-4.0
8023,-6.0
8024,-8.0
8025,-5.0
8026,-4.0
8027,-4.0
8028,-4.0
8029,-5.0
8030,-5.0
8031,-7.0
8032,-5.0
8033,-3.0
8034,-4.0
8035,-11.0
8036,-6.0
8037,-7.0
8038,-5.0
8039,-5.0
8040,-5.0
8041,-9.0
8042,-6.0
8043,-3.0
8044,-7.0
8045,-4.0
8046,-6.0
8047,-6.0
8048,-5.0
8049,-7.0
8050,-7.0
8051,-4.0
8052,-7.0
8053,-6.0
8054,-6.0
8055,-4.0
8056,-5.0
8057,-4.0
8058,-6.0
8059,-8.0
8060,-8.0
8061,-3.0
8062,-4.0
8063,-8.0
8064,-6.0
8065,-4.0
8066,-4.0
8067,-9.0
8068,-7.0
8069,-3.0
8070,-6.0
8071,-7.0
8072,-9.0
8073,-5.0
8074,-2.0
8075,-7.0
8076,-4.0
8077,-7.0
8078,-6.0
8079,-6.0
8080,-10.0
8081,-5.0
8082,-4.0
8083,-4.0
8084,-8.0
8085,-8.0
8086,-4.0
8087,-3.0
8088,-5.0
8089,-5.0
8090,-9.0
8091,-4.0
8092,-7.0
8093,-5.0
8094,-4.0
8095,-6.0
8096,-5.0
8097,-3.0
8098,-5.0
8099,-9.0
8100,-3.0
8101,-7.0
8102,-2.0
8103,-9.0
8104,-5.0
8105,-3.0
8106,-6.0
8107,-6.0
8108,-3.0
8109,-4.0
8110,-6.0
8111,-7.0
8112,-3.0
8113,-2.0
8114,-6.0
8115,-8.0
8116,-2.0
8117,-6.0
8118,-9.0
8119,-2.0
8120,-5.0
8121,-4.0
8122,-4.0
8123,-6.0
8124,-7.0
8125,-5.0
8126,0.0
8127,-7.0
8128,-5.0
8129,-6.0
8130,-1.0
8131,-7.0
8132,-4.0
8133,-5.0
8134,-2.0
8135,-8.0
8136,-2.0
8137,-3.0
8138,-4.0
8139,-10.0
8140,-7.0
8141,-3.0
8142,-1.0
8143,-8.0
8144,-5.0
8145,-9.0
8146,-2.0
8147,-3.0
8148,-7.0
8149,-5.0
8150,-2.0
8151,-5.0
8152,-2.0
8153,-3.0
8154,-8.0
8155,-5.0
8156,-4.0
8157,-3.0
8158,-4.0
8159,-6.0
8160,-7.0
8161,-5.0
8162,-3.0
8163,-2.0
8164,-5.0
8165,-3.0
8166,-4.0
8167,-5.0
8168,-4.0
8169,-5.0
8170,-4.0
8171,-4.0
8172,-3.0
8173,-6.0
8174,-7.0
8175,-1.0
8176,-9.0
8177,-2.0
8178,-4.0
8179,-2.0
8180,-2.0
8181,-6.0
8182,-4.0
8183,-5.0
8184,-3.0
8185,-2.0
8186,-2.0
8187,-10.0
8188,-2.0
8189,-6.0
8190,-5.0
8191,-4.0
8192,-4.0
8193,-2.0
8194,-7.0
8195,-3.0
8196,-5.0
8197,-1.0
8198,-6.0
8199,-5.0
8200,-2.0
8201,-9.0
8202,-5.0
8203,-1.0
8204,-3.0
8205,-3.0
8206,-5.0
8207,-5.0
8208,-4.0
8209,-4.0
8210,-4.0
8211,-4.0
8212,-3.0
8213,-3.0
8214,-1.0
8215,-7.0
8216,-5.0
8217,-2.0
8218,-4.0
8219,-4.0
8220,-2.0
8221,-4.0
8222,-2.0
8223,-7.0
8224,-4.0
8225,-1.0
8226,-4.0
8227,-6.0
8228,-2.0
8229,-4.0
8230,-4.0
8231,-5.0
8232,-2.0
8233,-6.0
8234,-4.0
8235,-3.0
8236,-7.0
8237,-3.0
8238,-3.0
8239,-2.0
8240,-6.0
8241,-4.0
8242,-3.0
8243,-2.0
8244,-5.0
8245,-1.0
8246,-4.0
8247,-5.0
8248,-2.0
8249,-4.0
8250,-3.0
8251,-6.0
8252,-4.0
8253,-2.0
8254,-3.0
8255,-6.0
8256,-6.0
8257,-6.0
8258,-2.0
8259,-1.0
8260,-3.0
8261,-6.0
8262,-3.0
8263,-3.0
8264,-4.0
8265,-3.0
8266,-3.0
8267,-5.0
8268,-3.0
8269,-2.0
8270,-6.0
8271,-4.0
8272,-4.0
8273,-2.0
8274,-4.0
8275,-3.0
8276,-6.0
8277,-1.0
8278,-2.0
8279,-5.0
8280,-1.0
8281,-4.0
8282,-5.0
8283,-4.0
8284,-1.0
8285,-2.0
8286,-7.0
8287,-4.0
8288,-3.0
8289,-3.0
8290,-7.0
8291,0.0
8292,-3.0
8293,-7.0
8294,-1.0
8295,-3.0
8296,-3.0
8297,-5.0
8298,-5.0
8299,-1.0
8300,-4.0
8301,-3.0
8302,-5.0
8303,-2.0
8304,-1.0
8305,-2.0
8306,-7.0
8307,-4.0
8308,-6.0
8309,0.0
8310,-4.0
8311,-4.0
8312,-6.0
8313,-4.0
8314,-1.0
8315,-3.0
8316,-1.0
8317,-2.0
8318,-4.0
8319,-7.0
8320,-5.0
8321,-4.0
8322,-3.0
8323,-2.0
8324,-7.0
8325,-3.0
8326,-2.0
8327,-2.0
8328,-3.0
8329,-4.0
8330,-4.0
8331,-1.0
8332,-4.0
8333,-1.0
8334,-4.0
8335,-4.0
8336,-4.0
8337,-3.0
8338,-5.0
8339,-2.0
8340,-1.0
8341,-2.0
8342,-3.0
8343,-7.0
8344,-3.0
8345,0.0
8346,-6.0
8347,-5.0
8348,-2.0
8349,-1.0
8350,-5.0
8351,-5.0
8352,-3.0
8353,-2.0
8354,-3.0
8355,-4.0
8356,-5.0
8357,-4.0
8358,-1.0
8359,-3.0
8360,-3.0
8361,-3.0
8362,-3.0
8363,-4.0
8364,0.0
8365,-6.0
8366,-5.0
8367,-2.0
8368,-2.0
8369,-1.0
8370,-8.0
8371,-2.0
8372,-3.0
8373,-3.0
8374,-4.0
8375,-3.0
8376,-3.0
8377,-2.0
8378,-4.0
8379,-4.0
8380,-4.0
8381,-1.0
8382,-3.0
8383,-5.0
8384,-4.0
8385,-5.0
8386,0.0
8387,-4.0
8388,-3.0
8389,-4.0
8390,-2.0
8391,-4.0
8392,-4.0
8393,-5.0
8394,-4.0
8395,0.0
8396,-2.0
8397,-5.0
8398,-2.0
8399,-3.0
8400,-1.0
8401,-5.0
8402,-5.0
8403,-2.0
8404,-2.0
8405,-4.0
8406,-1.0
8407,-6.0
8408,-5.0
8409,-1.0
8410,-4.0
8411,-3.0
8412,-4.0
8413,-4.0
8414,-3.0
8415,-2.0
8416,-6.0
8417,-3.0
8418,-3.0
8419,-1.0
8420,-5.0
8421,-4.0
8422,-4.0
8423,0.0
8424,-2.0
8425,-3.0
8426,-3.0
8427,-5.0
8428,-4.0
8429,-3.0
8430,-1.0
8431,-5.0
8432,-5.0
8433,-2.0
8434,-4.0
8435,-1.0
8436,-2.0
8437,-3.0
8438,-3.0
8439,-4.0
8440,-5.0
8441,-1.0
8442,-2.0
8443,-4.0
8444,-1.0
8445,-2.0
8446,-5.0
8447,-4.0
8448,-2.0
8449,-2.0
8450,-3.0
8451,-5.0
8452,0.0
8453,-6.0
8454,-3.0
8455,-3.0
8456,-3.0
8457,-4.0
8458,-3.0
8459,-2.0
8460,-3.0
8461,-1.0
8462,-4.0
8463,-4.0
8464,-4.0
8465,-3.0
8466,-3.0
8467,-2.0
8468,0.0
8469,-3.0
8470,-6.0
8471,-3.0
8472,-6.0
8473,-3.0
8474,-2.0
8475,-1.0
8476,-5.0
8477,-4.0
8478,-2.0
8479,-1.0
8480,-3.0
8481,-5.0
8482,-3.0
8483,-1.0
8484,-3.0
8485,-3.0
8486,-4.0
8487,-2.0
8488,-3.0
8489,-3.0
8490,-3.0
8491,-3.0
8492,-3.0
8493,-2.0
8494,-1.0
8495,-5.0
8496,-4.0
8497,-2.0
8498,-4.0
8499,-2.0
8500,-2.0
8501,-4.0
8502,-2.0
8503,-4.0
8504,-6.0
8505,-2.0
8506,-3.0
8507,-1.0
8508,-3.0
8509,-3.0
8510,-3.0
8511,-2.0
8512,-1.0
8513,-5.0
8514,-2.0
8515,-3.0
8516,-4.0
8517,-3.0
8518,-2.0
8519,-2.0
8520,-5.0
8521,-1.0
8522,-2.0
8523,-2.0
8524,-3.0
8525,-3.0
8526,-3.0
8527,-2.0
8528,-1.0
8529,-3.0
8530,-6.0
8531,0.0
8532,0.0
8533,-4.0
8534,-6.0
8535,0.0
8536,-4.0
8537,-2.0
8538,-1.0
8539,-3.0
8540,-1.0
8541,-1.0
8542,-4.0
8543,-4.0
8544,0.0
8545,-4.0
8546,-3.0
8547,-2.0
8548,0.0
8549,0.0
8550,-5.0
8551,-5.0
8552,0.0
8553,-5.0
8554,-1.0
8555,-3.0
8556,-2.0
8557,-2.0
8558,-4.0
8559,-2.0
8560,-3.0
8561,-3.0
8562,-2.0
8563,-2.0
8564,-1.0
8565,-4.0
8566,-1.0
8567,-4.0
8568,-2.0
8569,-3.0
8570,-4.0
8571,-1.0
8572,-2.0
8573,-3.0
8574,-2.0
8575,-3.0
8576,-1.0
8577,-5.0
8578,-2.0
8579,-2.0
8580,-3.0
8581,-3.0
8582,0.0
8583,-4.0
8584,-1.0
8585,-3.0
8586,-2.0
8587,-4.0
8588,-2.0
8589,-2.0
8590,-3.0
8591,-3.0
8592,-4.0
8593,0.0
8594,-3.0
8595,-3.0
8596,-2.0
8597,0.0
8598,-4.0
8599,-3.0
8600,0.0
8601,-1.0
8602,-2.0
8603,-7.0
8604,-3.0
8605,-1.0
8606,-2.0
8607,-3.0
8608,-3.0
8609,-2.0
8610,-2.0
8611,-3.0
8612,-2.0
8613,-4.0
8614,-2.0
8615,-2.0
8616,-3.0
8617,-5.0
8618,0.0
8619,-2.0
8620,-4.0
8621,-1.0
8622,-3.0
8623,-2.0
8624,-2.0
8625,-5.0
8626,-2.0
8627,-1.0
8628,-2.0
8629,-5.0
8630,-1.0
8631,-2.0
8632,-3.0
8633,0.0
8634,-3.0
8635,-4.0
8636,0.0
8637,-4.0
8638,-1.0
8639,-5.0
8640,-4.0
8641,-3.0
8642,-2.0
8643,-1.0
8644,-4.0
8645,-1.0
8646,-1.0
8647,-4.0
8648,-2.0
8649,-2.0
8650,-2.0
8651,-4.0
8652,-4.0
8653,-3.0
8654,-2.0
8655,-1.0
8656,-3.0
8657,-3.0
8658,-3.0
8659,-1.0
8660,-3.0
8661,-2.0
8662,-4.0
8663,-1.0
8664,-4.0
8665,-2.0
8666,-3.0
8667,-1.0
8668,-1.0
8669,-1.0
8670,-4.0
8671,-4.0
8672,-2.0
8673,-7.0
8674,0.0
8675,-1.0
8676,0.0
8677,-2.0
8678,-4.0
8679,-4.0
8680,-1.0
8681,-2.0
8682,-4.0
8683,-3.0
8684,-2.0
8685,-3.0
8686,-2.0
8687,-3.0
8688,-1.0
8689,-3.0
8690,-1.0
8691,-5.0
8692,-4.0
8693,0.0
8694,-5.0
8695,-1.0
8696,-5.0
8697,-2.0
8698,0.0
8699,-3.0
8700,-7.0
8701,0.0
8702,-1.0
8703,-2.0
8704,-2.0
8705,-2.0
8706,-3.0
8707,-3.0
8708,-3.0
8709,-1.0
8710,-5.0
8711,-1.0
8712,-6.0
8713,-1.0
8714,0.0
8715,-3.0
8716,-3.0
8717,-2.0
8718,-2.0
8719,-3.0
8720,-1.0
8721,-3.0
8722,-2.0
8723,-4.0
8724,-2.0
8725,-2.0
8726,-2.0
8727,-4.0
8728,-4.0
8729,0.0
8730,-4.0
8731,-2.0
8732,-4.0
8733,-1.0
8734,-3.0
8735,-2.0
8736,-5.0
8737,-1.0
8738,-1.0
8739,-3.0
8740,-3.0
8741,-1.0
8742,-4.0
8743,-2.0
8744,-2.0
8745,-1.0
8746,-1.0
8747,-6.0
8748,-3.0
8749,-3.0
8750,-2.0
8751,-1.0
8752,-3.0
8753,-2.0
8754,-3.0
8755,-1.0
8756,-3.0
8757,-3.0
8758,-2.0
8759,-1.0
8760,-2.0
8761,-3.0
8762,-1.0
8763,-3.0
8764,-2.0
8765,-5.0
8766,-2.0
8767,0.0
8768,-2.0
8769,-2.0
8770,-2.0
8771,-3.0
8772,-3.0
8773,-2.0
8774,-3.0
8775,-1.0
8776,-3.0
8777,-4.0
8778,-1.0
8779,0.0
8780,-6.0
8781,0.0
8782,-2.0
8783,0.0
8784,-1.0
8785,-3.0
8786,-2.0
8787,-2.0
8788,-3.0
8789,-2.0
8790,-1.0
8791,-2.0
8792,-4.0
8793,0.0
8794,-3.0
8795,-1.0
8796,-1.0
8797,-2.0
8798,-3.0
8799,-2.0
8800,-3.0
8801,-3.0
8802,0.0
8803,-2.0
8804,-2.0
8805,-1.0
8806,-4.0
8807,-1.0
8808,-1.0
8809,-5.0
8810,-2.0
8811,0.0
8812,-2.0
8813,0.0
8814,-1.0
8815,-5.0
8816,-2.0
8817,-1.0
8818,-2.0
8819,-3.0
8820,-1.0
8821,-3.0
8822,-2.0
8823,-1.0
8824,-2.0
8825,-2.0
8826,0.0
8827,-3.0
8828,-1.0
8829,-1.0
8830,-1.0
8831,-3.0
8832,-3.0
8833,-2.0
8834,-1.0
8835,0.0
8836,-3.0
8837,-2.0
8838,-1.0
8839,0.0
8840,-3.0
8841,-2.0
8842,0.0
8843,-1.0
8844,-1.0
8845,-2.0
8846,-1.0
8847,-2.0
8848,-1.0
8849,0.0
8850,-5.0
8851,0.0
8852,-3.0
8853,-2.0
8854,0.0
8855,-1.0
8856,-3.0
8857,-1.0
8858,-1.0
8859,-1.0
8860,-3.0
8861,-2.0
8862,0.0
8863,-1.0
8864,-2.0
8865,-1.0
8866,-2.0
8867,-1.0
8868,-1.0
8869,-3.0
8870,-1.0
8871,-1.0
8872,-1.0
8873,0.0
8874,-4.0
8875,-1.0
8876,-3.0
8877,0.0
8878,-2.0
8879,-1.0
8880,-2.0
8881,-3.0
8882,-1.0
8883,0.0
8884,0.0
8885,-2.0
8886,-2.0
8887,-2.0
8888,-3.0
8889,-3.0
8890,0.0
8891,0.0
8892,-1.0
8893,-3.0
8894,0.0
8895,-2.0
8896,-1.0
8897,-1.0
8898,0.0
8899,-4.0
8900,-3.0
8901,0.0
8902,-1.0
8903,-2.0
8904,0.0
8905,-3.0
8906,-2.0
8907,-1.0
8908,-1.0
8909,-1.0
8910,-1.0
8911,-3.0
8912,-2.0
8913,-3.0
8914,0.0
8915,-1.0
8916,-2.0
8917,0.0
8918,-1.0
8919,-3.0
8920,-4.0
8921,-1.0
8922,-1.0
8923,0.0
8924,-1.0
8925,-1.0
8926,-1.0
8927,-3.0
8928,-2.0
8929,-4.0
8930,0.0
8931,0.0
8932,-3.0
8933,-1.0
8934,-1.0
8935,-1.0
8936,0.0
8937,-3.0
8938,-2.0
8939,-1.0
8940,0.0
8941,0.0
8942,-4.0
8943,-2.0
8944,-2.0
8945,-1.0
8946,-1.0
8947,-2.0
8948,0.0
8949,-3.0
8950,-1.0
8951,-2.0
8952,-1.0
8953,-1.0
8954,-4.0
8955,0.0
8956,-4.0
8957,0.0
8958,0.0
8959,-2.0
8960,-3.0
8961,0.0
8962,-3.0
8963,0.0
8964,0.0
8965,0.0
8966,-1.0
8967,-5.0
8968,-1.0
8969,-1.0
8970,-4.0
8971,0.0
8972,-4.0
8973,0.0
8974,0.0
8975,-2.0
8976,-4.0
8977,-1.0
8978,0.0
8979,-1.0
8980,-2.0
8981,0.0
8982,-2.0
8983,-2.0
8984,-1.0
8985,-2.0
8986,-3.0
8987,0.0
8988,-2.0
8989,-2.0
8990,-1.0
8991,-1.0
8992,-2.0
8993,-3.0
8994,-1.0
8995,0.0
8996,-2.0
8997,-3.0
8998,0.0
8999,-1.0
9000,0.0
9001,0.0
9002,-2.0
9003,-2.0
9004,-2.0
9005,-1.0
9006,0.0
9007,-1.0
9008,0.0
9009,-3.0
9010,0.0
9011,-1.0
9012,-1.0
9013,-1.0
9014,0.0
9015,-2.0
9016,-1.0
9017,-1.0
9018,-1.0
9019,-1.0
9020,-1.0
9021,-3.0
9022,0.0
9023,0.0
9024,0.0
9025,-2.0
9026,-2.0
9027,0.0
9028,0.0
9029,0.0
9030,-2.0
9031,-2.0
9032,-2.0
9033,0.0
9034,-1.0
9035,-1.0
9036,-1.0
9037,-1.0
9038,0.0
9039,-2.0
9040,-2.0
9041,-1.0
9042,0.0
9043,-1.0
9044,-3.0
9045,-1.0
9046,0.0
9047,0.0
9048,-3.0
9049,0.0
9050,0.0
9051,-1.0
9052,0.0
9053,-1.0
9054,-2.0
9055,-1.0
9056,-2.0
9057,-1.0
9058,-1.0
9059,0.0
9060,0.0
9061,-2.0
9062,-2.0
9063,0.0
9064,0.0
9065,-1.0
9066,-1.0
9067,-2.0
9068,0.0
9069,-1.0
9070,-1.0
9071,-2.0
9072,-2.0
9073,0.0
9074,0.0
9075,-2.0
9076,0.0
9077,-2.0
9078,-1.0
9079,-1.0
9080,-1.0
9081,0.0
9082,0.0
9083,-3.0
9084,-1.0
9085,-1.0
9086,-1.0
9087,-1.0
9088,-2.0
9089,-1.0
9090,0.0
9091,-1.0
9092,-2.0
9093,0.0
9094,0.0
9095,-2.0
9096,-1.0
9097,0.0
9098,-1.0
9099,-2.0
9100,-1.0
9101,-2.0
9102,0.0
9103,-1.0
9104,-1.0
9105,-1.0
9106,-1.0
9107,-1.0
9108,0.0
9109,-2.0
9110,-1.0
9111,-1.0
9112,-2.0
9113,0.0
9114,0.0
9115,-2.0
9116,-1.0
9117,0.0
9118,-1.0
9119,-2.0
9120,-2.0
9121,0.0
9122,-1.0
9123,-1.0
9124,-1.0
9125,0.0
9126,-1.0
9127,-2.0
9128,-1.0
9129,-1.0
9130,-2.0
9131,0.0
9132,-1.0
9133,-1.0
9134,-2.0
9135,0.0
9136,-3.0
9137,0.0
9138,-1.0
9139,0.0
9140,-1.0
9141,-1.0
9142,-1.0
9143,-1.0
9144,-2.0
9145,-1.0
9146,-1.0
9147,0.0
9148,-2.0
9149,-1.0
9150,-1.0
9151,0.0
9152,0.0
9153,-1.0
9154,-2.0
9155,-1.0
9156,-1.0
9157,-2.0
9158,0.0
9159,-1.0
9160,-2.0
9161,-1.0
9162,0.0
9163,-1.0
9164,-1.0
9165,-1.0
9166,-1.0
9167,-1.0
9168,-2.0
9169,-1.0
9170,-1.0
9171,0.0
9172,-2.0
9173,-1.0
9174,-1.0
9175,0.0
9176,-1.0
9177,-1.0
9178,-1.0
9179,0.0
9180,-1.0
9181,-1.0
9182,-1.0
9183,0.0
9184,0.0
9185,-1.0
9186,-1.0
9187,-2.0
9188,-1.0
9189,-2.0
9190,-1.0
9191,0.0
9192,-2.0
9193,0.0
